%YAML:1.0
opencv_ml_rtrees:
   format: 3
   is_classifier: 1
   var_all: 1765
   var_count: 1764
   ord_var_count: 1764
   cat_var_count: 1
   training_params:
      use_surrogates: 0
      max_categories: 10
      regression_accuracy: 0.
      max_depth: 5
      min_sample_count: 10
      cross_validation_folds: 0
      nactive_vars: 0
   global_var_idx: 1
   var_idx: [ 0, 1, 2, 3, 4, 5, 6, 7, 8, 9, 10, 11, 12, 13, 14, 15, 16,
       17, 18, 19, 20, 21, 22, 23, 24, 25, 26, 27, 28, 29, 30, 31, 32,
       33, 34, 35, 36, 37, 38, 39, 40, 41, 42, 43, 44, 45, 46, 47, 48,
       49, 50, 51, 52, 53, 54, 55, 56, 57, 58, 59, 60, 61, 62, 63, 64,
       65, 66, 67, 68, 69, 70, 71, 72, 73, 74, 75, 76, 77, 78, 79, 80,
       81, 82, 83, 84, 85, 86, 87, 88, 89, 90, 91, 92, 93, 94, 95, 96,
       97, 98, 99, 100, 101, 102, 103, 104, 105, 106, 107, 108, 109, 110,
       111, 112, 113, 114, 115, 116, 117, 118, 119, 120, 121, 122, 123,
       124, 125, 126, 127, 128, 129, 130, 131, 132, 133, 134, 135, 136,
       137, 138, 139, 140, 141, 142, 143, 144, 145, 146, 147, 148, 149,
       150, 151, 152, 153, 154, 155, 156, 157, 158, 159, 160, 161, 162,
       163, 164, 165, 166, 167, 168, 169, 170, 171, 172, 173, 174, 175,
       176, 177, 178, 179, 180, 181, 182, 183, 184, 185, 186, 187, 188,
       189, 190, 191, 192, 193, 194, 195, 196, 197, 198, 199, 200, 201,
       202, 203, 204, 205, 206, 207, 208, 209, 210, 211, 212, 213, 214,
       215, 216, 217, 218, 219, 220, 221, 222, 223, 224, 225, 226, 227,
       228, 229, 230, 231, 232, 233, 234, 235, 236, 237, 238, 239, 240,
       241, 242, 243, 244, 245, 246, 247, 248, 249, 250, 251, 252, 253,
       254, 255, 256, 257, 258, 259, 260, 261, 262, 263, 264, 265, 266,
       267, 268, 269, 270, 271, 272, 273, 274, 275, 276, 277, 278, 279,
       280, 281, 282, 283, 284, 285, 286, 287, 288, 289, 290, 291, 292,
       293, 294, 295, 296, 297, 298, 299, 300, 301, 302, 303, 304, 305,
       306, 307, 308, 309, 310, 311, 312, 313, 314, 315, 316, 317, 318,
       319, 320, 321, 322, 323, 324, 325, 326, 327, 328, 329, 330, 331,
       332, 333, 334, 335, 336, 337, 338, 339, 340, 341, 342, 343, 344,
       345, 346, 347, 348, 349, 350, 351, 352, 353, 354, 355, 356, 357,
       358, 359, 360, 361, 362, 363, 364, 365, 366, 367, 368, 369, 370,
       371, 372, 373, 374, 375, 376, 377, 378, 379, 380, 381, 382, 383,
       384, 385, 386, 387, 388, 389, 390, 391, 392, 393, 394, 395, 396,
       397, 398, 399, 400, 401, 402, 403, 404, 405, 406, 407, 408, 409,
       410, 411, 412, 413, 414, 415, 416, 417, 418, 419, 420, 421, 422,
       423, 424, 425, 426, 427, 428, 429, 430, 431, 432, 433, 434, 435,
       436, 437, 438, 439, 440, 441, 442, 443, 444, 445, 446, 447, 448,
       449, 450, 451, 452, 453, 454, 455, 456, 457, 458, 459, 460, 461,
       462, 463, 464, 465, 466, 467, 468, 469, 470, 471, 472, 473, 474,
       475, 476, 477, 478, 479, 480, 481, 482, 483, 484, 485, 486, 487,
       488, 489, 490, 491, 492, 493, 494, 495, 496, 497, 498, 499, 500,
       501, 502, 503, 504, 505, 506, 507, 508, 509, 510, 511, 512, 513,
       514, 515, 516, 517, 518, 519, 520, 521, 522, 523, 524, 525, 526,
       527, 528, 529, 530, 531, 532, 533, 534, 535, 536, 537, 538, 539,
       540, 541, 542, 543, 544, 545, 546, 547, 548, 549, 550, 551, 552,
       553, 554, 555, 556, 557, 558, 559, 560, 561, 562, 563, 564, 565,
       566, 567, 568, 569, 570, 571, 572, 573, 574, 575, 576, 577, 578,
       579, 580, 581, 582, 583, 584, 585, 586, 587, 588, 589, 590, 591,
       592, 593, 594, 595, 596, 597, 598, 599, 600, 601, 602, 603, 604,
       605, 606, 607, 608, 609, 610, 611, 612, 613, 614, 615, 616, 617,
       618, 619, 620, 621, 622, 623, 624, 625, 626, 627, 628, 629, 630,
       631, 632, 633, 634, 635, 636, 637, 638, 639, 640, 641, 642, 643,
       644, 645, 646, 647, 648, 649, 650, 651, 652, 653, 654, 655, 656,
       657, 658, 659, 660, 661, 662, 663, 664, 665, 666, 667, 668, 669,
       670, 671, 672, 673, 674, 675, 676, 677, 678, 679, 680, 681, 682,
       683, 684, 685, 686, 687, 688, 689, 690, 691, 692, 693, 694, 695,
       696, 697, 698, 699, 700, 701, 702, 703, 704, 705, 706, 707, 708,
       709, 710, 711, 712, 713, 714, 715, 716, 717, 718, 719, 720, 721,
       722, 723, 724, 725, 726, 727, 728, 729, 730, 731, 732, 733, 734,
       735, 736, 737, 738, 739, 740, 741, 742, 743, 744, 745, 746, 747,
       748, 749, 750, 751, 752, 753, 754, 755, 756, 757, 758, 759, 760,
       761, 762, 763, 764, 765, 766, 767, 768, 769, 770, 771, 772, 773,
       774, 775, 776, 777, 778, 779, 780, 781, 782, 783, 784, 785, 786,
       787, 788, 789, 790, 791, 792, 793, 794, 795, 796, 797, 798, 799,
       800, 801, 802, 803, 804, 805, 806, 807, 808, 809, 810, 811, 812,
       813, 814, 815, 816, 817, 818, 819, 820, 821, 822, 823, 824, 825,
       826, 827, 828, 829, 830, 831, 832, 833, 834, 835, 836, 837, 838,
       839, 840, 841, 842, 843, 844, 845, 846, 847, 848, 849, 850, 851,
       852, 853, 854, 855, 856, 857, 858, 859, 860, 861, 862, 863, 864,
       865, 866, 867, 868, 869, 870, 871, 872, 873, 874, 875, 876, 877,
       878, 879, 880, 881, 882, 883, 884, 885, 886, 887, 888, 889, 890,
       891, 892, 893, 894, 895, 896, 897, 898, 899, 900, 901, 902, 903,
       904, 905, 906, 907, 908, 909, 910, 911, 912, 913, 914, 915, 916,
       917, 918, 919, 920, 921, 922, 923, 924, 925, 926, 927, 928, 929,
       930, 931, 932, 933, 934, 935, 936, 937, 938, 939, 940, 941, 942,
       943, 944, 945, 946, 947, 948, 949, 950, 951, 952, 953, 954, 955,
       956, 957, 958, 959, 960, 961, 962, 963, 964, 965, 966, 967, 968,
       969, 970, 971, 972, 973, 974, 975, 976, 977, 978, 979, 980, 981,
       982, 983, 984, 985, 986, 987, 988, 989, 990, 991, 992, 993, 994,
       995, 996, 997, 998, 999, 1000, 1001, 1002, 1003, 1004, 1005, 1006,
       1007, 1008, 1009, 1010, 1011, 1012, 1013, 1014, 1015, 1016, 1017,
       1018, 1019, 1020, 1021, 1022, 1023, 1024, 1025, 1026, 1027, 1028,
       1029, 1030, 1031, 1032, 1033, 1034, 1035, 1036, 1037, 1038, 1039,
       1040, 1041, 1042, 1043, 1044, 1045, 1046, 1047, 1048, 1049, 1050,
       1051, 1052, 1053, 1054, 1055, 1056, 1057, 1058, 1059, 1060, 1061,
       1062, 1063, 1064, 1065, 1066, 1067, 1068, 1069, 1070, 1071, 1072,
       1073, 1074, 1075, 1076, 1077, 1078, 1079, 1080, 1081, 1082, 1083,
       1084, 1085, 1086, 1087, 1088, 1089, 1090, 1091, 1092, 1093, 1094,
       1095, 1096, 1097, 1098, 1099, 1100, 1101, 1102, 1103, 1104, 1105,
       1106, 1107, 1108, 1109, 1110, 1111, 1112, 1113, 1114, 1115, 1116,
       1117, 1118, 1119, 1120, 1121, 1122, 1123, 1124, 1125, 1126, 1127,
       1128, 1129, 1130, 1131, 1132, 1133, 1134, 1135, 1136, 1137, 1138,
       1139, 1140, 1141, 1142, 1143, 1144, 1145, 1146, 1147, 1148, 1149,
       1150, 1151, 1152, 1153, 1154, 1155, 1156, 1157, 1158, 1159, 1160,
       1161, 1162, 1163, 1164, 1165, 1166, 1167, 1168, 1169, 1170, 1171,
       1172, 1173, 1174, 1175, 1176, 1177, 1178, 1179, 1180, 1181, 1182,
       1183, 1184, 1185, 1186, 1187, 1188, 1189, 1190, 1191, 1192, 1193,
       1194, 1195, 1196, 1197, 1198, 1199, 1200, 1201, 1202, 1203, 1204,
       1205, 1206, 1207, 1208, 1209, 1210, 1211, 1212, 1213, 1214, 1215,
       1216, 1217, 1218, 1219, 1220, 1221, 1222, 1223, 1224, 1225, 1226,
       1227, 1228, 1229, 1230, 1231, 1232, 1233, 1234, 1235, 1236, 1237,
       1238, 1239, 1240, 1241, 1242, 1243, 1244, 1245, 1246, 1247, 1248,
       1249, 1250, 1251, 1252, 1253, 1254, 1255, 1256, 1257, 1258, 1259,
       1260, 1261, 1262, 1263, 1264, 1265, 1266, 1267, 1268, 1269, 1270,
       1271, 1272, 1273, 1274, 1275, 1276, 1277, 1278, 1279, 1280, 1281,
       1282, 1283, 1284, 1285, 1286, 1287, 1288, 1289, 1290, 1291, 1292,
       1293, 1294, 1295, 1296, 1297, 1298, 1299, 1300, 1301, 1302, 1303,
       1304, 1305, 1306, 1307, 1308, 1309, 1310, 1311, 1312, 1313, 1314,
       1315, 1316, 1317, 1318, 1319, 1320, 1321, 1322, 1323, 1324, 1325,
       1326, 1327, 1328, 1329, 1330, 1331, 1332, 1333, 1334, 1335, 1336,
       1337, 1338, 1339, 1340, 1341, 1342, 1343, 1344, 1345, 1346, 1347,
       1348, 1349, 1350, 1351, 1352, 1353, 1354, 1355, 1356, 1357, 1358,
       1359, 1360, 1361, 1362, 1363, 1364, 1365, 1366, 1367, 1368, 1369,
       1370, 1371, 1372, 1373, 1374, 1375, 1376, 1377, 1378, 1379, 1380,
       1381, 1382, 1383, 1384, 1385, 1386, 1387, 1388, 1389, 1390, 1391,
       1392, 1393, 1394, 1395, 1396, 1397, 1398, 1399, 1400, 1401, 1402,
       1403, 1404, 1405, 1406, 1407, 1408, 1409, 1410, 1411, 1412, 1413,
       1414, 1415, 1416, 1417, 1418, 1419, 1420, 1421, 1422, 1423, 1424,
       1425, 1426, 1427, 1428, 1429, 1430, 1431, 1432, 1433, 1434, 1435,
       1436, 1437, 1438, 1439, 1440, 1441, 1442, 1443, 1444, 1445, 1446,
       1447, 1448, 1449, 1450, 1451, 1452, 1453, 1454, 1455, 1456, 1457,
       1458, 1459, 1460, 1461, 1462, 1463, 1464, 1465, 1466, 1467, 1468,
       1469, 1470, 1471, 1472, 1473, 1474, 1475, 1476, 1477, 1478, 1479,
       1480, 1481, 1482, 1483, 1484, 1485, 1486, 1487, 1488, 1489, 1490,
       1491, 1492, 1493, 1494, 1495, 1496, 1497, 1498, 1499, 1500, 1501,
       1502, 1503, 1504, 1505, 1506, 1507, 1508, 1509, 1510, 1511, 1512,
       1513, 1514, 1515, 1516, 1517, 1518, 1519, 1520, 1521, 1522, 1523,
       1524, 1525, 1526, 1527, 1528, 1529, 1530, 1531, 1532, 1533, 1534,
       1535, 1536, 1537, 1538, 1539, 1540, 1541, 1542, 1543, 1544, 1545,
       1546, 1547, 1548, 1549, 1550, 1551, 1552, 1553, 1554, 1555, 1556,
       1557, 1558, 1559, 1560, 1561, 1562, 1563, 1564, 1565, 1566, 1567,
       1568, 1569, 1570, 1571, 1572, 1573, 1574, 1575, 1576, 1577, 1578,
       1579, 1580, 1581, 1582, 1583, 1584, 1585, 1586, 1587, 1588, 1589,
       1590, 1591, 1592, 1593, 1594, 1595, 1596, 1597, 1598, 1599, 1600,
       1601, 1602, 1603, 1604, 1605, 1606, 1607, 1608, 1609, 1610, 1611,
       1612, 1613, 1614, 1615, 1616, 1617, 1618, 1619, 1620, 1621, 1622,
       1623, 1624, 1625, 1626, 1627, 1628, 1629, 1630, 1631, 1632, 1633,
       1634, 1635, 1636, 1637, 1638, 1639, 1640, 1641, 1642, 1643, 1644,
       1645, 1646, 1647, 1648, 1649, 1650, 1651, 1652, 1653, 1654, 1655,
       1656, 1657, 1658, 1659, 1660, 1661, 1662, 1663, 1664, 1665, 1666,
       1667, 1668, 1669, 1670, 1671, 1672, 1673, 1674, 1675, 1676, 1677,
       1678, 1679, 1680, 1681, 1682, 1683, 1684, 1685, 1686, 1687, 1688,
       1689, 1690, 1691, 1692, 1693, 1694, 1695, 1696, 1697, 1698, 1699,
       1700, 1701, 1702, 1703, 1704, 1705, 1706, 1707, 1708, 1709, 1710,
       1711, 1712, 1713, 1714, 1715, 1716, 1717, 1718, 1719, 1720, 1721,
       1722, 1723, 1724, 1725, 1726, 1727, 1728, 1729, 1730, 1731, 1732,
       1733, 1734, 1735, 1736, 1737, 1738, 1739, 1740, 1741, 1742, 1743,
       1744, 1745, 1746, 1747, 1748, 1749, 1750, 1751, 1752, 1753, 1754,
       1755, 1756, 1757, 1758, 1759, 1760, 1761, 1762, 1763 ]
   var_type: [ 0, 0, 0, 0, 0, 0, 0, 0, 0, 0, 0, 0, 0, 0, 0, 0, 0, 0, 0,
       0, 0, 0, 0, 0, 0, 0, 0, 0, 0, 0, 0, 0, 0, 0, 0, 0, 0, 0, 0, 0, 0,
       0, 0, 0, 0, 0, 0, 0, 0, 0, 0, 0, 0, 0, 0, 0, 0, 0, 0, 0, 0, 0, 0,
       0, 0, 0, 0, 0, 0, 0, 0, 0, 0, 0, 0, 0, 0, 0, 0, 0, 0, 0, 0, 0, 0,
       0, 0, 0, 0, 0, 0, 0, 0, 0, 0, 0, 0, 0, 0, 0, 0, 0, 0, 0, 0, 0, 0,
       0, 0, 0, 0, 0, 0, 0, 0, 0, 0, 0, 0, 0, 0, 0, 0, 0, 0, 0, 0, 0, 0,
       0, 0, 0, 0, 0, 0, 0, 0, 0, 0, 0, 0, 0, 0, 0, 0, 0, 0, 0, 0, 0, 0,
       0, 0, 0, 0, 0, 0, 0, 0, 0, 0, 0, 0, 0, 0, 0, 0, 0, 0, 0, 0, 0, 0,
       0, 0, 0, 0, 0, 0, 0, 0, 0, 0, 0, 0, 0, 0, 0, 0, 0, 0, 0, 0, 0, 0,
       0, 0, 0, 0, 0, 0, 0, 0, 0, 0, 0, 0, 0, 0, 0, 0, 0, 0, 0, 0, 0, 0,
       0, 0, 0, 0, 0, 0, 0, 0, 0, 0, 0, 0, 0, 0, 0, 0, 0, 0, 0, 0, 0, 0,
       0, 0, 0, 0, 0, 0, 0, 0, 0, 0, 0, 0, 0, 0, 0, 0, 0, 0, 0, 0, 0, 0,
       0, 0, 0, 0, 0, 0, 0, 0, 0, 0, 0, 0, 0, 0, 0, 0, 0, 0, 0, 0, 0, 0,
       0, 0, 0, 0, 0, 0, 0, 0, 0, 0, 0, 0, 0, 0, 0, 0, 0, 0, 0, 0, 0, 0,
       0, 0, 0, 0, 0, 0, 0, 0, 0, 0, 0, 0, 0, 0, 0, 0, 0, 0, 0, 0, 0, 0,
       0, 0, 0, 0, 0, 0, 0, 0, 0, 0, 0, 0, 0, 0, 0, 0, 0, 0, 0, 0, 0, 0,
       0, 0, 0, 0, 0, 0, 0, 0, 0, 0, 0, 0, 0, 0, 0, 0, 0, 0, 0, 0, 0, 0,
       0, 0, 0, 0, 0, 0, 0, 0, 0, 0, 0, 0, 0, 0, 0, 0, 0, 0, 0, 0, 0, 0,
       0, 0, 0, 0, 0, 0, 0, 0, 0, 0, 0, 0, 0, 0, 0, 0, 0, 0, 0, 0, 0, 0,
       0, 0, 0, 0, 0, 0, 0, 0, 0, 0, 0, 0, 0, 0, 0, 0, 0, 0, 0, 0, 0, 0,
       0, 0, 0, 0, 0, 0, 0, 0, 0, 0, 0, 0, 0, 0, 0, 0, 0, 0, 0, 0, 0, 0,
       0, 0, 0, 0, 0, 0, 0, 0, 0, 0, 0, 0, 0, 0, 0, 0, 0, 0, 0, 0, 0, 0,
       0, 0, 0, 0, 0, 0, 0, 0, 0, 0, 0, 0, 0, 0, 0, 0, 0, 0, 0, 0, 0, 0,
       0, 0, 0, 0, 0, 0, 0, 0, 0, 0, 0, 0, 0, 0, 0, 0, 0, 0, 0, 0, 0, 0,
       0, 0, 0, 0, 0, 0, 0, 0, 0, 0, 0, 0, 0, 0, 0, 0, 0, 0, 0, 0, 0, 0,
       0, 0, 0, 0, 0, 0, 0, 0, 0, 0, 0, 0, 0, 0, 0, 0, 0, 0, 0, 0, 0, 0,
       0, 0, 0, 0, 0, 0, 0, 0, 0, 0, 0, 0, 0, 0, 0, 0, 0, 0, 0, 0, 0, 0,
       0, 0, 0, 0, 0, 0, 0, 0, 0, 0, 0, 0, 0, 0, 0, 0, 0, 0, 0, 0, 0, 0,
       0, 0, 0, 0, 0, 0, 0, 0, 0, 0, 0, 0, 0, 0, 0, 0, 0, 0, 0, 0, 0, 0,
       0, 0, 0, 0, 0, 0, 0, 0, 0, 0, 0, 0, 0, 0, 0, 0, 0, 0, 0, 0, 0, 0,
       0, 0, 0, 0, 0, 0, 0, 0, 0, 0, 0, 0, 0, 0, 0, 0, 0, 0, 0, 0, 0, 0,
       0, 0, 0, 0, 0, 0, 0, 0, 0, 0, 0, 0, 0, 0, 0, 0, 0, 0, 0, 0, 0, 0,
       0, 0, 0, 0, 0, 0, 0, 0, 0, 0, 0, 0, 0, 0, 0, 0, 0, 0, 0, 0, 0, 0,
       0, 0, 0, 0, 0, 0, 0, 0, 0, 0, 0, 0, 0, 0, 0, 0, 0, 0, 0, 0, 0, 0,
       0, 0, 0, 0, 0, 0, 0, 0, 0, 0, 0, 0, 0, 0, 0, 0, 0, 0, 0, 0, 0, 0,
       0, 0, 0, 0, 0, 0, 0, 0, 0, 0, 0, 0, 0, 0, 0, 0, 0, 0, 0, 0, 0, 0,
       0, 0, 0, 0, 0, 0, 0, 0, 0, 0, 0, 0, 0, 0, 0, 0, 0, 0, 0, 0, 0, 0,
       0, 0, 0, 0, 0, 0, 0, 0, 0, 0, 0, 0, 0, 0, 0, 0, 0, 0, 0, 0, 0, 0,
       0, 0, 0, 0, 0, 0, 0, 0, 0, 0, 0, 0, 0, 0, 0, 0, 0, 0, 0, 0, 0, 0,
       0, 0, 0, 0, 0, 0, 0, 0, 0, 0, 0, 0, 0, 0, 0, 0, 0, 0, 0, 0, 0, 0,
       0, 0, 0, 0, 0, 0, 0, 0, 0, 0, 0, 0, 0, 0, 0, 0, 0, 0, 0, 0, 0, 0,
       0, 0, 0, 0, 0, 0, 0, 0, 0, 0, 0, 0, 0, 0, 0, 0, 0, 0, 0, 0, 0, 0,
       0, 0, 0, 0, 0, 0, 0, 0, 0, 0, 0, 0, 0, 0, 0, 0, 0, 0, 0, 0, 0, 0,
       0, 0, 0, 0, 0, 0, 0, 0, 0, 0, 0, 0, 0, 0, 0, 0, 0, 0, 0, 0, 0, 0,
       0, 0, 0, 0, 0, 0, 0, 0, 0, 0, 0, 0, 0, 0, 0, 0, 0, 0, 0, 0, 0, 0,
       0, 0, 0, 0, 0, 0, 0, 0, 0, 0, 0, 0, 0, 0, 0, 0, 0, 0, 0, 0, 0, 0,
       0, 0, 0, 0, 0, 0, 0, 0, 0, 0, 0, 0, 0, 0, 0, 0, 0, 0, 0, 0, 0, 0,
       0, 0, 0, 0, 0, 0, 0, 0, 0, 0, 0, 0, 0, 0, 0, 0, 0, 0, 0, 0, 0, 0,
       0, 0, 0, 0, 0, 0, 0, 0, 0, 0, 0, 0, 0, 0, 0, 0, 0, 0, 0, 0, 0, 0,
       0, 0, 0, 0, 0, 0, 0, 0, 0, 0, 0, 0, 0, 0, 0, 0, 0, 0, 0, 0, 0, 0,
       0, 0, 0, 0, 0, 0, 0, 0, 0, 0, 0, 0, 0, 0, 0, 0, 0, 0, 0, 0, 0, 0,
       0, 0, 0, 0, 0, 0, 0, 0, 0, 0, 0, 0, 0, 0, 0, 0, 0, 0, 0, 0, 0, 0,
       0, 0, 0, 0, 0, 0, 0, 0, 0, 0, 0, 0, 0, 0, 0, 0, 0, 0, 0, 0, 0, 0,
       0, 0, 0, 0, 0, 0, 0, 0, 0, 0, 0, 0, 0, 0, 0, 0, 0, 0, 0, 0, 0, 0,
       0, 0, 0, 0, 0, 0, 0, 0, 0, 0, 0, 0, 0, 0, 0, 0, 0, 0, 0, 0, 0, 0,
       0, 0, 0, 0, 0, 0, 0, 0, 0, 0, 0, 0, 0, 0, 0, 0, 0, 0, 0, 0, 0, 0,
       0, 0, 0, 0, 0, 0, 0, 0, 0, 0, 0, 0, 0, 0, 0, 0, 0, 0, 0, 0, 0, 0,
       0, 0, 0, 0, 0, 0, 0, 0, 0, 0, 0, 0, 0, 0, 0, 0, 0, 0, 0, 0, 0, 0,
       0, 0, 0, 0, 0, 0, 0, 0, 0, 0, 0, 0, 0, 0, 0, 0, 0, 0, 0, 0, 0, 0,
       0, 0, 0, 0, 0, 0, 0, 0, 0, 0, 0, 0, 0, 0, 0, 0, 0, 0, 0, 0, 0, 0,
       0, 0, 0, 0, 0, 0, 0, 0, 0, 0, 0, 0, 0, 0, 0, 0, 0, 0, 0, 0, 0, 0,
       0, 0, 0, 0, 0, 0, 0, 0, 0, 0, 0, 0, 0, 0, 0, 0, 0, 0, 0, 0, 0, 0,
       0, 0, 0, 0, 0, 0, 0, 0, 0, 0, 0, 0, 0, 0, 0, 0, 0, 0, 0, 0, 0, 0,
       0, 0, 0, 0, 0, 0, 0, 0, 0, 0, 0, 0, 0, 0, 0, 0, 0, 0, 0, 0, 0, 0,
       0, 0, 0, 0, 0, 0, 0, 0, 0, 0, 0, 0, 0, 0, 0, 0, 0, 0, 0, 0, 0, 0,
       0, 0, 0, 0, 0, 0, 0, 0, 0, 0, 0, 0, 0, 0, 0, 0, 0, 0, 0, 0, 0, 0,
       0, 0, 0, 0, 0, 0, 0, 0, 0, 0, 0, 0, 0, 0, 0, 0, 0, 0, 0, 0, 0, 0,
       0, 0, 0, 0, 0, 0, 0, 0, 0, 0, 0, 0, 0, 0, 0, 0, 0, 0, 0, 0, 0, 0,
       0, 0, 0, 0, 0, 0, 0, 0, 0, 0, 0, 0, 0, 0, 0, 0, 0, 0, 0, 0, 0, 0,
       0, 0, 0, 0, 0, 0, 0, 0, 0, 0, 0, 0, 0, 0, 0, 0, 0, 0, 0, 0, 0, 0,
       0, 0, 0, 0, 0, 0, 0, 0, 0, 0, 0, 0, 0, 0, 0, 0, 0, 0, 0, 0, 0, 0,
       0, 0, 0, 0, 0, 0, 0, 0, 0, 0, 0, 0, 0, 0, 0, 0, 0, 0, 0, 0, 0, 0,
       0, 0, 0, 0, 0, 0, 0, 0, 0, 0, 0, 0, 0, 0, 0, 0, 0, 0, 0, 0, 0, 0,
       0, 0, 0, 0, 0, 0, 0, 0, 0, 0, 0, 0, 0, 0, 0, 0, 0, 0, 0, 0, 0, 0,
       0, 0, 0, 0, 0, 0, 0, 0, 0, 0, 0, 0, 0, 0, 0, 0, 0, 0, 0, 0, 0, 0,
       0, 0, 0, 0, 0, 0, 0, 0, 0, 0, 0, 0, 0, 0, 0, 0, 0, 0, 0, 0, 0, 0,
       0, 0, 0, 0, 0, 0, 0, 0, 0, 0, 0, 0, 0, 0, 0, 0, 0, 0, 0, 0, 0, 0,
       0, 0, 0, 0, 0, 0, 0, 0, 0, 0, 0, 0, 0, 0, 0, 0, 0, 0, 0, 0, 0, 0,
       0, 0, 0, 0, 0, 0, 0, 0, 0, 0, 0, 0, 0, 0, 0, 0, 0, 0, 0, 0, 0, 0,
       0, 0, 0, 0, 0, 0, 0, 0, 0, 0, 0, 0, 0, 0, 0, 0, 0, 0, 0, 0, 0, 0,
       0, 0, 0, 0, 0, 0, 0, 1 ]
   cat_ofs: [ 0, 0, 0, 0, 0, 0, 0, 0, 0, 0, 0, 0, 0, 0, 0, 0, 0, 0, 0, 0,
       0, 0, 0, 0, 0, 0, 0, 0, 0, 0, 0, 0, 0, 0, 0, 0, 0, 0, 0, 0, 0, 0,
       0, 0, 0, 0, 0, 0, 0, 0, 0, 0, 0, 0, 0, 0, 0, 0, 0, 0, 0, 0, 0, 0,
       0, 0, 0, 0, 0, 0, 0, 0, 0, 0, 0, 0, 0, 0, 0, 0, 0, 0, 0, 0, 0, 0,
       0, 0, 0, 0, 0, 0, 0, 0, 0, 0, 0, 0, 0, 0, 0, 0, 0, 0, 0, 0, 0, 0,
       0, 0, 0, 0, 0, 0, 0, 0, 0, 0, 0, 0, 0, 0, 0, 0, 0, 0, 0, 0, 0, 0,
       0, 0, 0, 0, 0, 0, 0, 0, 0, 0, 0, 0, 0, 0, 0, 0, 0, 0, 0, 0, 0, 0,
       0, 0, 0, 0, 0, 0, 0, 0, 0, 0, 0, 0, 0, 0, 0, 0, 0, 0, 0, 0, 0, 0,
       0, 0, 0, 0, 0, 0, 0, 0, 0, 0, 0, 0, 0, 0, 0, 0, 0, 0, 0, 0, 0, 0,
       0, 0, 0, 0, 0, 0, 0, 0, 0, 0, 0, 0, 0, 0, 0, 0, 0, 0, 0, 0, 0, 0,
       0, 0, 0, 0, 0, 0, 0, 0, 0, 0, 0, 0, 0, 0, 0, 0, 0, 0, 0, 0, 0, 0,
       0, 0, 0, 0, 0, 0, 0, 0, 0, 0, 0, 0, 0, 0, 0, 0, 0, 0, 0, 0, 0, 0,
       0, 0, 0, 0, 0, 0, 0, 0, 0, 0, 0, 0, 0, 0, 0, 0, 0, 0, 0, 0, 0, 0,
       0, 0, 0, 0, 0, 0, 0, 0, 0, 0, 0, 0, 0, 0, 0, 0, 0, 0, 0, 0, 0, 0,
       0, 0, 0, 0, 0, 0, 0, 0, 0, 0, 0, 0, 0, 0, 0, 0, 0, 0, 0, 0, 0, 0,
       0, 0, 0, 0, 0, 0, 0, 0, 0, 0, 0, 0, 0, 0, 0, 0, 0, 0, 0, 0, 0, 0,
       0, 0, 0, 0, 0, 0, 0, 0, 0, 0, 0, 0, 0, 0, 0, 0, 0, 0, 0, 0, 0, 0,
       0, 0, 0, 0, 0, 0, 0, 0, 0, 0, 0, 0, 0, 0, 0, 0, 0, 0, 0, 0, 0, 0,
       0, 0, 0, 0, 0, 0, 0, 0, 0, 0, 0, 0, 0, 0, 0, 0, 0, 0, 0, 0, 0, 0,
       0, 0, 0, 0, 0, 0, 0, 0, 0, 0, 0, 0, 0, 0, 0, 0, 0, 0, 0, 0, 0, 0,
       0, 0, 0, 0, 0, 0, 0, 0, 0, 0, 0, 0, 0, 0, 0, 0, 0, 0, 0, 0, 0, 0,
       0, 0, 0, 0, 0, 0, 0, 0, 0, 0, 0, 0, 0, 0, 0, 0, 0, 0, 0, 0, 0, 0,
       0, 0, 0, 0, 0, 0, 0, 0, 0, 0, 0, 0, 0, 0, 0, 0, 0, 0, 0, 0, 0, 0,
       0, 0, 0, 0, 0, 0, 0, 0, 0, 0, 0, 0, 0, 0, 0, 0, 0, 0, 0, 0, 0, 0,
       0, 0, 0, 0, 0, 0, 0, 0, 0, 0, 0, 0, 0, 0, 0, 0, 0, 0, 0, 0, 0, 0,
       0, 0, 0, 0, 0, 0, 0, 0, 0, 0, 0, 0, 0, 0, 0, 0, 0, 0, 0, 0, 0, 0,
       0, 0, 0, 0, 0, 0, 0, 0, 0, 0, 0, 0, 0, 0, 0, 0, 0, 0, 0, 0, 0, 0,
       0, 0, 0, 0, 0, 0, 0, 0, 0, 0, 0, 0, 0, 0, 0, 0, 0, 0, 0, 0, 0, 0,
       0, 0, 0, 0, 0, 0, 0, 0, 0, 0, 0, 0, 0, 0, 0, 0, 0, 0, 0, 0, 0, 0,
       0, 0, 0, 0, 0, 0, 0, 0, 0, 0, 0, 0, 0, 0, 0, 0, 0, 0, 0, 0, 0, 0,
       0, 0, 0, 0, 0, 0, 0, 0, 0, 0, 0, 0, 0, 0, 0, 0, 0, 0, 0, 0, 0, 0,
       0, 0, 0, 0, 0, 0, 0, 0, 0, 0, 0, 0, 0, 0, 0, 0, 0, 0, 0, 0, 0, 0,
       0, 0, 0, 0, 0, 0, 0, 0, 0, 0, 0, 0, 0, 0, 0, 0, 0, 0, 0, 0, 0, 0,
       0, 0, 0, 0, 0, 0, 0, 0, 0, 0, 0, 0, 0, 0, 0, 0, 0, 0, 0, 0, 0, 0,
       0, 0, 0, 0, 0, 0, 0, 0, 0, 0, 0, 0, 0, 0, 0, 0, 0, 0, 0, 0, 0, 0,
       0, 0, 0, 0, 0, 0, 0, 0, 0, 0, 0, 0, 0, 0, 0, 0, 0, 0, 0, 0, 0, 0,
       0, 0, 0, 0, 0, 0, 0, 0, 0, 0, 0, 0, 0, 0, 0, 0, 0, 0, 0, 0, 0, 0,
       0, 0, 0, 0, 0, 0, 0, 0, 0, 0, 0, 0, 0, 0, 0, 0, 0, 0, 0, 0, 0, 0,
       0, 0, 0, 0, 0, 0, 0, 0, 0, 0, 0, 0, 0, 0, 0, 0, 0, 0, 0, 0, 0, 0,
       0, 0, 0, 0, 0, 0, 0, 0, 0, 0, 0, 0, 0, 0, 0, 0, 0, 0, 0, 0, 0, 0,
       0, 0, 0, 0, 0, 0, 0, 0, 0, 0, 0, 0, 0, 0, 0, 0, 0, 0, 0, 0, 0, 0,
       0, 0, 0, 0, 0, 0, 0, 0, 0, 0, 0, 0, 0, 0, 0, 0, 0, 0, 0, 0, 0, 0,
       0, 0, 0, 0, 0, 0, 0, 0, 0, 0, 0, 0, 0, 0, 0, 0, 0, 0, 0, 0, 0, 0,
       0, 0, 0, 0, 0, 0, 0, 0, 0, 0, 0, 0, 0, 0, 0, 0, 0, 0, 0, 0, 0, 0,
       0, 0, 0, 0, 0, 0, 0, 0, 0, 0, 0, 0, 0, 0, 0, 0, 0, 0, 0, 0, 0, 0,
       0, 0, 0, 0, 0, 0, 0, 0, 0, 0, 0, 0, 0, 0, 0, 0, 0, 0, 0, 0, 0, 0,
       0, 0, 0, 0, 0, 0, 0, 0, 0, 0, 0, 0, 0, 0, 0, 0, 0, 0, 0, 0, 0, 0,
       0, 0, 0, 0, 0, 0, 0, 0, 0, 0, 0, 0, 0, 0, 0, 0, 0, 0, 0, 0, 0, 0,
       0, 0, 0, 0, 0, 0, 0, 0, 0, 0, 0, 0, 0, 0, 0, 0, 0, 0, 0, 0, 0, 0,
       0, 0, 0, 0, 0, 0, 0, 0, 0, 0, 0, 0, 0, 0, 0, 0, 0, 0, 0, 0, 0, 0,
       0, 0, 0, 0, 0, 0, 0, 0, 0, 0, 0, 0, 0, 0, 0, 0, 0, 0, 0, 0, 0, 0,
       0, 0, 0, 0, 0, 0, 0, 0, 0, 0, 0, 0, 0, 0, 0, 0, 0, 0, 0, 0, 0, 0,
       0, 0, 0, 0, 0, 0, 0, 0, 0, 0, 0, 0, 0, 0, 0, 0, 0, 0, 0, 0, 0, 0,
       0, 0, 0, 0, 0, 0, 0, 0, 0, 0, 0, 0, 0, 0, 0, 0, 0, 0, 0, 0, 0, 0,
       0, 0, 0, 0, 0, 0, 0, 0, 0, 0, 0, 0, 0, 0, 0, 0, 0, 0, 0, 0, 0, 0,
       0, 0, 0, 0, 0, 0, 0, 0, 0, 0, 0, 0, 0, 0, 0, 0, 0, 0, 0, 0, 0, 0,
       0, 0, 0, 0, 0, 0, 0, 0, 0, 0, 0, 0, 0, 0, 0, 0, 0, 0, 0, 0, 0, 0,
       0, 0, 0, 0, 0, 0, 0, 0, 0, 0, 0, 0, 0, 0, 0, 0, 0, 0, 0, 0, 0, 0,
       0, 0, 0, 0, 0, 0, 0, 0, 0, 0, 0, 0, 0, 0, 0, 0, 0, 0, 0, 0, 0, 0,
       0, 0, 0, 0, 0, 0, 0, 0, 0, 0, 0, 0, 0, 0, 0, 0, 0, 0, 0, 0, 0, 0,
       0, 0, 0, 0, 0, 0, 0, 0, 0, 0, 0, 0, 0, 0, 0, 0, 0, 0, 0, 0, 0, 0,
       0, 0, 0, 0, 0, 0, 0, 0, 0, 0, 0, 0, 0, 0, 0, 0, 0, 0, 0, 0, 0, 0,
       0, 0, 0, 0, 0, 0, 0, 0, 0, 0, 0, 0, 0, 0, 0, 0, 0, 0, 0, 0, 0, 0,
       0, 0, 0, 0, 0, 0, 0, 0, 0, 0, 0, 0, 0, 0, 0, 0, 0, 0, 0, 0, 0, 0,
       0, 0, 0, 0, 0, 0, 0, 0, 0, 0, 0, 0, 0, 0, 0, 0, 0, 0, 0, 0, 0, 0,
       0, 0, 0, 0, 0, 0, 0, 0, 0, 0, 0, 0, 0, 0, 0, 0, 0, 0, 0, 0, 0, 0,
       0, 0, 0, 0, 0, 0, 0, 0, 0, 0, 0, 0, 0, 0, 0, 0, 0, 0, 0, 0, 0, 0,
       0, 0, 0, 0, 0, 0, 0, 0, 0, 0, 0, 0, 0, 0, 0, 0, 0, 0, 0, 0, 0, 0,
       0, 0, 0, 0, 0, 0, 0, 0, 0, 0, 0, 0, 0, 0, 0, 0, 0, 0, 0, 0, 0, 0,
       0, 0, 0, 0, 0, 0, 0, 0, 0, 0, 0, 0, 0, 0, 0, 0, 0, 0, 0, 0, 0, 0,
       0, 0, 0, 0, 0, 0, 0, 0, 0, 0, 0, 0, 0, 0, 0, 0, 0, 0, 0, 0, 0, 0,
       0, 0, 0, 0, 0, 0, 0, 0, 0, 0, 0, 0, 0, 0, 0, 0, 0, 0, 0, 0, 0, 0,
       0, 0, 0, 0, 0, 0, 0, 0, 0, 0, 0, 0, 0, 0, 0, 0, 0, 0, 0, 0, 0, 0,
       0, 0, 0, 0, 0, 0, 0, 0, 0, 0, 0, 0, 0, 0, 0, 0, 0, 0, 0, 0, 0, 0,
       0, 0, 0, 0, 0, 0, 0, 0, 0, 0, 0, 0, 0, 0, 0, 0, 0, 0, 0, 0, 0, 0,
       0, 0, 0, 0, 0, 0, 0, 0, 0, 0, 0, 0, 0, 0, 0, 0, 0, 0, 0, 0, 0, 0,
       0, 0, 0, 0, 0, 0, 0, 0, 0, 0, 0, 0, 0, 0, 0, 0, 0, 0, 0, 0, 0, 0,
       0, 0, 0, 0, 0, 0, 0, 0, 0, 0, 0, 0, 0, 0, 0, 0, 0, 0, 0, 0, 0, 0,
       0, 0, 0, 0, 0, 0, 0, 0, 0, 0, 0, 0, 0, 0, 0, 0, 0, 0, 0, 0, 0, 0,
       0, 0, 0, 0, 0, 0, 0, 0, 0, 0, 0, 0, 0, 0, 0, 0, 0, 0, 0, 0, 0, 0,
       0, 0, 0, 0, 0, 0, 0, 0, 0, 0, 0, 0, 0, 0, 0, 0, 0, 0, 0, 0, 0, 0,
       0, 0, 0, 0, 0, 0, 0, 0, 0, 0, 0, 0, 0, 0, 0, 0, 0, 0, 0, 0, 0, 0,
       0, 0, 0, 0, 0, 0, 0, 0, 0, 0, 0, 0, 0, 0, 0, 0, 0, 0, 0, 0, 0, 0,
       0, 0, 0, 0, 0, 0, 0, 0, 0, 0, 0, 0, 0, 0, 0, 0, 0, 0, 0, 0, 0, 0,
       0, 0, 0, 0, 0, 0, 0, 0, 0, 0, 0, 0, 0, 0, 0, 0, 0, 0, 0, 0, 0, 0,
       0, 0, 0, 0, 0, 0, 0, 0, 0, 0, 0, 0, 0, 0, 0, 0, 0, 0, 0, 0, 0, 0,
       0, 0, 0, 0, 0, 0, 0, 0, 0, 0, 0, 0, 0, 0, 0, 0, 0, 0, 0, 0, 0, 0,
       0, 0, 0, 0, 0, 0, 0, 0, 0, 0, 0, 0, 0, 0, 0, 0, 0, 0, 0, 0, 0, 0,
       0, 0, 0, 0, 0, 0, 0, 0, 0, 0, 0, 0, 0, 0, 0, 0, 0, 0, 0, 0, 0, 0,
       0, 0, 0, 0, 0, 0, 0, 0, 0, 0, 0, 0, 0, 0, 0, 0, 0, 0, 0, 0, 0, 0,
       0, 0, 0, 0, 0, 0, 0, 0, 0, 0, 0, 0, 0, 0, 0, 0, 0, 0, 0, 0, 0, 0,
       0, 0, 0, 0, 0, 0, 0, 0, 0, 0, 0, 0, 0, 0, 0, 0, 0, 0, 0, 0, 0, 0,
       0, 0, 0, 0, 0, 0, 0, 0, 0, 0, 0, 0, 0, 0, 0, 0, 0, 0, 0, 0, 0, 0,
       0, 0, 0, 0, 0, 0, 0, 0, 0, 0, 0, 0, 0, 0, 0, 0, 0, 0, 0, 0, 0, 0,
       0, 0, 0, 0, 0, 0, 0, 0, 0, 0, 0, 0, 0, 0, 0, 0, 0, 0, 0, 0, 0, 0,
       0, 0, 0, 0, 0, 0, 0, 0, 0, 0, 0, 0, 0, 0, 0, 0, 0, 0, 0, 0, 0, 0,
       0, 0, 0, 0, 0, 0, 0, 0, 0, 0, 0, 0, 0, 0, 0, 0, 0, 0, 0, 0, 0, 0,
       0, 0, 0, 0, 0, 0, 0, 0, 0, 0, 0, 0, 0, 0, 0, 0, 0, 0, 0, 0, 0, 0,
       0, 0, 0, 0, 0, 0, 0, 0, 0, 0, 0, 0, 0, 0, 0, 0, 0, 0, 0, 0, 0, 0,
       0, 0, 0, 0, 0, 0, 0, 0, 0, 0, 0, 0, 0, 0, 0, 0, 0, 0, 0, 0, 0, 0,
       0, 0, 0, 0, 0, 0, 0, 0, 0, 0, 0, 0, 0, 0, 0, 0, 0, 0, 0, 0, 0, 0,
       0, 0, 0, 0, 0, 0, 0, 0, 0, 0, 0, 0, 0, 0, 0, 0, 0, 0, 0, 0, 0, 0,
       0, 0, 0, 0, 0, 0, 0, 0, 0, 0, 0, 0, 0, 0, 0, 0, 0, 0, 0, 0, 0, 0,
       0, 0, 0, 0, 0, 0, 0, 0, 0, 0, 0, 0, 0, 0, 0, 0, 0, 0, 0, 0, 0, 0,
       0, 0, 0, 0, 0, 0, 0, 0, 0, 0, 0, 0, 0, 0, 0, 0, 0, 0, 0, 0, 0, 0,
       0, 0, 0, 0, 0, 0, 0, 0, 0, 0, 0, 0, 0, 0, 0, 0, 0, 0, 0, 0, 0, 0,
       0, 0, 0, 0, 0, 0, 0, 0, 0, 0, 0, 0, 0, 0, 0, 0, 0, 0, 0, 0, 0, 0,
       0, 0, 0, 0, 0, 0, 0, 0, 0, 0, 0, 0, 0, 0, 0, 0, 0, 0, 0, 0, 0, 0,
       0, 0, 0, 0, 0, 0, 0, 0, 0, 0, 0, 0, 0, 0, 0, 0, 0, 0, 0, 0, 0, 0,
       0, 0, 0, 0, 0, 0, 0, 0, 0, 0, 0, 0, 0, 0, 0, 0, 0, 0, 0, 0, 0, 0,
       0, 0, 0, 0, 0, 0, 0, 0, 0, 0, 0, 0, 0, 0, 0, 0, 0, 0, 0, 0, 0, 0,
       0, 0, 0, 0, 0, 0, 0, 0, 0, 0, 0, 0, 0, 0, 0, 0, 0, 0, 0, 0, 0, 0,
       0, 0, 0, 0, 0, 0, 0, 0, 0, 0, 0, 0, 0, 0, 0, 0, 0, 0, 0, 0, 0, 0,
       0, 0, 0, 0, 0, 0, 0, 0, 0, 0, 0, 0, 0, 0, 0, 0, 0, 0, 0, 0, 0, 0,
       0, 0, 0, 0, 0, 0, 0, 0, 0, 0, 0, 0, 0, 0, 0, 0, 0, 0, 0, 0, 0, 0,
       0, 0, 0, 0, 0, 0, 0, 0, 0, 0, 0, 0, 0, 0, 0, 0, 0, 0, 0, 0, 0, 0,
       0, 0, 0, 0, 0, 0, 0, 0, 0, 0, 0, 0, 0, 0, 0, 0, 0, 0, 0, 0, 0, 0,
       0, 0, 0, 0, 0, 0, 0, 0, 0, 0, 0, 0, 0, 0, 0, 0, 0, 0, 0, 0, 0, 0,
       0, 0, 0, 0, 0, 0, 0, 0, 0, 0, 0, 0, 0, 0, 0, 0, 0, 0, 0, 0, 0, 0,
       0, 0, 0, 0, 0, 0, 0, 0, 0, 0, 0, 0, 0, 0, 0, 0, 0, 0, 0, 0, 0, 0,
       0, 0, 0, 0, 0, 0, 0, 0, 0, 0, 0, 0, 0, 0, 0, 0, 0, 0, 0, 0, 0, 0,
       0, 0, 0, 0, 0, 0, 0, 0, 0, 0, 0, 0, 0, 0, 0, 0, 0, 0, 0, 0, 0, 0,
       0, 0, 0, 0, 0, 0, 0, 0, 0, 0, 0, 0, 0, 0, 0, 0, 0, 0, 0, 0, 0, 0,
       0, 0, 0, 0, 0, 0, 0, 0, 0, 0, 0, 0, 0, 0, 0, 0, 0, 0, 0, 0, 0, 0,
       0, 0, 0, 0, 0, 0, 0, 0, 0, 0, 0, 0, 0, 0, 0, 0, 0, 0, 0, 0, 0, 0,
       0, 0, 0, 0, 0, 0, 0, 0, 0, 0, 0, 0, 0, 0, 0, 0, 0, 0, 0, 0, 0, 0,
       0, 0, 0, 0, 0, 0, 0, 0, 0, 0, 0, 0, 0, 0, 0, 0, 0, 0, 0, 0, 0, 0,
       0, 0, 0, 0, 0, 0, 0, 0, 0, 0, 0, 0, 0, 0, 0, 0, 0, 0, 0, 0, 0, 0,
       0, 0, 0, 0, 0, 0, 0, 0, 0, 0, 0, 0, 0, 0, 0, 0, 0, 0, 0, 0, 0, 0,
       0, 0, 0, 0, 0, 0, 0, 0, 0, 0, 0, 0, 0, 0, 0, 0, 0, 0, 0, 0, 0, 0,
       0, 0, 0, 0, 0, 0, 0, 0, 0, 0, 0, 0, 0, 0, 0, 0, 0, 0, 0, 0, 0, 0,
       0, 0, 0, 0, 0, 0, 0, 0, 0, 0, 0, 0, 0, 0, 0, 0, 0, 0, 0, 0, 0, 0,
       0, 0, 0, 0, 0, 0, 0, 0, 0, 0, 0, 0, 0, 0, 0, 0, 0, 0, 0, 0, 0, 0,
       0, 0, 0, 0, 0, 0, 0, 0, 0, 0, 0, 0, 0, 0, 0, 0, 0, 0, 0, 0, 0, 0,
       0, 0, 0, 0, 0, 0, 0, 0, 0, 0, 0, 0, 0, 0, 0, 0, 0, 0, 0, 0, 0, 0,
       0, 0, 0, 0, 0, 0, 0, 0, 0, 0, 0, 0, 0, 0, 0, 0, 0, 0, 0, 0, 0, 0,
       0, 0, 0, 0, 0, 0, 0, 0, 0, 0, 0, 0, 0, 0, 0, 0, 0, 0, 0, 0, 0, 0,
       0, 0, 0, 0, 0, 0, 0, 0, 0, 0, 0, 0, 0, 0, 0, 0, 0, 0, 0, 0, 0, 0,
       0, 0, 0, 0, 0, 0, 0, 0, 0, 0, 0, 0, 0, 0, 0, 0, 0, 0, 0, 0, 0, 0,
       0, 0, 0, 0, 0, 0, 0, 0, 0, 0, 0, 0, 0, 0, 0, 0, 0, 0, 0, 0, 0, 0,
       0, 0, 0, 0, 0, 0, 0, 0, 0, 0, 0, 0, 0, 0, 0, 0, 0, 0, 0, 0, 0, 0,
       0, 0, 0, 0, 0, 0, 0, 0, 0, 0, 0, 0, 0, 0, 0, 0, 0, 0, 0, 0, 0, 0,
       0, 0, 0, 0, 0, 0, 0, 0, 0, 0, 0, 0, 0, 0, 0, 0, 0, 0, 0, 0, 0, 0,
       0, 0, 0, 0, 0, 0, 0, 0, 0, 0, 0, 0, 0, 0, 0, 0, 0, 0, 0, 0, 0, 0,
       0, 0, 0, 0, 0, 0, 0, 0, 0, 0, 0, 0, 0, 0, 0, 0, 0, 0, 0, 0, 0, 0,
       0, 0, 0, 0, 0, 0, 0, 0, 0, 0, 0, 0, 0, 0, 0, 0, 0, 0, 0, 0, 0, 0,
       0, 0, 0, 0, 0, 0, 0, 0, 0, 0, 0, 0, 0, 0, 0, 0, 0, 0, 0, 0, 0, 0,
       0, 0, 0, 0, 0, 0, 0, 0, 0, 0, 0, 0, 0, 0, 0, 0, 0, 0, 0, 0, 0, 0,
       0, 0, 0, 0, 0, 0, 0, 0, 0, 0, 0, 0, 0, 0, 0, 0, 0, 0, 0, 0, 0, 0,
       0, 0, 0, 0, 0, 0, 0, 0, 0, 0, 0, 0, 0, 0, 0, 0, 0, 0, 0, 0, 0, 0,
       0, 0, 0, 0, 0, 0, 0, 0, 0, 0, 0, 0, 0, 0, 0, 0, 0, 0, 0, 0, 0, 0,
       0, 0, 0, 0, 0, 0, 0, 0, 0, 0, 0, 0, 0, 0, 0, 0, 0, 0, 0, 0, 0, 0,
       0, 0, 0, 0, 0, 0, 0, 0, 0, 0, 0, 0, 0, 0, 0, 0, 0, 0, 0, 0, 0, 0,
       0, 0, 0, 0, 0, 0, 0, 0, 0, 0, 0, 0, 0, 0, 0, 0, 0, 0, 0, 0, 0, 0,
       0, 0, 0, 0, 0, 0, 0, 0, 0, 0, 0, 0, 0, 0, 0, 0, 0, 0, 0, 0, 0, 0,
       0, 0, 0, 0, 0, 0, 0, 0, 0, 0, 0, 0, 0, 0, 0, 0, 0, 0, 0, 0, 0, 0,
       0, 0, 0, 0, 0, 0, 0, 0, 0, 0, 0, 0, 0, 0, 0, 0, 0, 0, 0, 0, 0, 0,
       0, 0, 0, 0, 0, 0, 0, 0, 0, 0, 0, 0, 0, 0, 0, 0, 0, 0, 0, 0, 0, 0,
       0, 0, 0, 0, 0, 0, 0, 0, 0, 0, 0, 0, 0, 0, 0, 0, 0, 0, 0, 0, 0, 0,
       0, 0, 0, 0, 0, 0, 0, 0, 0, 0, 0, 0, 0, 0, 0, 0, 0, 0, 0, 0, 0, 0,
       0, 0, 0, 0, 0, 0, 0, 0, 0, 0 ]
   class_labels: [ 0, 1, 2, 3, 4, 5, 6, 7, 8, 9, 10, 11, 12 ]
   missing_subst: [ 0., 0., 0., 0., 0., 0., 0., 0., 0., 0., 0., 0., 0.,
       0., 0., 0., 0., 0., 0., 0., 0., 0., 0., 0., 0., 0., 0., 0., 0.,
       0., 0., 0., 0., 0., 0., 0., 0., 0., 0., 0., 0., 0., 0., 0., 0.,
       0., 0., 0., 0., 0., 0., 0., 0., 0., 0., 0., 0., 0., 0., 0., 0.,
       0., 0., 0., 0., 0., 0., 0., 0., 0., 0., 0., 0., 0., 0., 0., 0.,
       0., 0., 0., 0., 0., 0., 0., 0., 0., 0., 0., 0., 0., 0., 0., 0.,
       0., 0., 0., 0., 0., 0., 0., 0., 0., 0., 0., 0., 0., 0., 0., 0.,
       0., 0., 0., 0., 0., 0., 0., 0., 0., 0., 0., 0., 0., 0., 0., 0.,
       0., 0., 0., 0., 0., 0., 0., 0., 0., 0., 0., 0., 0., 0., 0., 0.,
       0., 0., 0., 0., 0., 0., 0., 0., 0., 0., 0., 0., 0., 0., 0., 0.,
       0., 0., 0., 0., 0., 0., 0., 0., 0., 0., 0., 0., 0., 0., 0., 0.,
       0., 0., 0., 0., 0., 0., 0., 0., 0., 0., 0., 0., 0., 0., 0., 0.,
       0., 0., 0., 0., 0., 0., 0., 0., 0., 0., 0., 0., 0., 0., 0., 0.,
       0., 0., 0., 0., 0., 0., 0., 0., 0., 0., 0., 0., 0., 0., 0., 0.,
       0., 0., 0., 0., 0., 0., 0., 0., 0., 0., 0., 0., 0., 0., 0., 0.,
       0., 0., 0., 0., 0., 0., 0., 0., 0., 0., 0., 0., 0., 0., 0., 0.,
       0., 0., 0., 0., 0., 0., 0., 0., 0., 0., 0., 0., 0., 0., 0., 0.,
       0., 0., 0., 0., 0., 0., 0., 0., 0., 0., 0., 0., 0., 0., 0., 0.,
       0., 0., 0., 0., 0., 0., 0., 0., 0., 0., 0., 0., 0., 0., 0., 0.,
       0., 0., 0., 0., 0., 0., 0., 0., 0., 0., 0., 0., 0., 0., 0., 0.,
       0., 0., 0., 0., 0., 0., 0., 0., 0., 0., 0., 0., 0., 0., 0., 0.,
       0., 0., 0., 0., 0., 0., 0., 0., 0., 0., 0., 0., 0., 0., 0., 0.,
       0., 0., 0., 0., 0., 0., 0., 0., 0., 0., 0., 0., 0., 0., 0., 0.,
       0., 0., 0., 0., 0., 0., 0., 0., 0., 0., 0., 0., 0., 0., 0., 0.,
       0., 0., 0., 0., 0., 0., 0., 0., 0., 0., 0., 0., 0., 0., 0., 0.,
       0., 0., 0., 0., 0., 0., 0., 0., 0., 0., 0., 0., 0., 0., 0., 0.,
       0., 0., 0., 0., 0., 0., 0., 0., 0., 0., 0., 0., 0., 0., 0., 0.,
       0., 0., 0., 0., 0., 0., 0., 0., 0., 0., 0., 0., 0., 0., 0., 0.,
       0., 0., 0., 0., 0., 0., 0., 0., 0., 0., 0., 0., 0., 0., 0., 0.,
       0., 0., 0., 0., 0., 0., 0., 0., 0., 0., 0., 0., 0., 0., 0., 0.,
       0., 0., 0., 0., 0., 0., 0., 0., 0., 0., 0., 0., 0., 0., 0., 0.,
       0., 0., 0., 0., 0., 0., 0., 0., 0., 0., 0., 0., 0., 0., 0., 0.,
       0., 0., 0., 0., 0., 0., 0., 0., 0., 0., 0., 0., 0., 0., 0., 0.,
       0., 0., 0., 0., 0., 0., 0., 0., 0., 0., 0., 0., 0., 0., 0., 0.,
       0., 0., 0., 0., 0., 0., 0., 0., 0., 0., 0., 0., 0., 0., 0., 0.,
       0., 0., 0., 0., 0., 0., 0., 0., 0., 0., 0., 0., 0., 0., 0., 0.,
       0., 0., 0., 0., 0., 0., 0., 0., 0., 0., 0., 0., 0., 0., 0., 0.,
       0., 0., 0., 0., 0., 0., 0., 0., 0., 0., 0., 0., 0., 0., 0., 0.,
       0., 0., 0., 0., 0., 0., 0., 0., 0., 0., 0., 0., 0., 0., 0., 0.,
       0., 0., 0., 0., 0., 0., 0., 0., 0., 0., 0., 0., 0., 0., 0., 0.,
       0., 0., 0., 0., 0., 0., 0., 0., 0., 0., 0., 0., 0., 0., 0., 0.,
       0., 0., 0., 0., 0., 0., 0., 0., 0., 0., 0., 0., 0., 0., 0., 0.,
       0., 0., 0., 0., 0., 0., 0., 0., 0., 0., 0., 0., 0., 0., 0., 0.,
       0., 0., 0., 0., 0., 0., 0., 0., 0., 0., 0., 0., 0., 0., 0., 0.,
       0., 0., 0., 0., 0., 0., 0., 0., 0., 0., 0., 0., 0., 0., 0., 0.,
       0., 0., 0., 0., 0., 0., 0., 0., 0., 0., 0., 0., 0., 0., 0., 0.,
       0., 0., 0., 0., 0., 0., 0., 0., 0., 0., 0., 0., 0., 0., 0., 0.,
       0., 0., 0., 0., 0., 0., 0., 0., 0., 0., 0., 0., 0., 0., 0., 0.,
       0., 0., 0., 0., 0., 0., 0., 0., 0., 0., 0., 0., 0., 0., 0., 0.,
       0., 0., 0., 0., 0., 0., 0., 0., 0., 0., 0., 0., 0., 0., 0., 0.,
       0., 0., 0., 0., 0., 0., 0., 0., 0., 0., 0., 0., 0., 0., 0., 0.,
       0., 0., 0., 0., 0., 0., 0., 0., 0., 0., 0., 0., 0., 0., 0., 0.,
       0., 0., 0., 0., 0., 0., 0., 0., 0., 0., 0., 0., 0., 0., 0., 0.,
       0., 0., 0., 0., 0., 0., 0., 0., 0., 0., 0., 0., 0., 0., 0., 0.,
       0., 0., 0., 0., 0., 0., 0., 0., 0., 0., 0., 0., 0., 0., 0., 0.,
       0., 0., 0., 0., 0., 0., 0., 0., 0., 0., 0., 0., 0., 0., 0., 0.,
       0., 0., 0., 0., 0., 0., 0., 0., 0., 0., 0., 0., 0., 0., 0., 0.,
       0., 0., 0., 0., 0., 0., 0., 0., 0., 0., 0., 0., 0., 0., 0., 0.,
       0., 0., 0., 0., 0., 0., 0., 0., 0., 0., 0., 0., 0., 0., 0., 0.,
       0., 0., 0., 0., 0., 0., 0., 0., 0., 0., 0., 0., 0., 0., 0., 0.,
       0., 0., 0., 0., 0., 0., 0., 0., 0., 0., 0., 0., 0., 0., 0., 0.,
       0., 0., 0., 0., 0., 0., 0., 0., 0., 0., 0., 0., 0., 0., 0., 0.,
       0., 0., 0., 0., 0., 0., 0., 0., 0., 0., 0., 0., 0., 0., 0., 0.,
       0., 0., 0., 0., 0., 0., 0., 0., 0., 0., 0., 0., 0., 0., 0., 0.,
       0., 0., 0., 0., 0., 0., 0., 0., 0., 0., 0., 0., 0., 0., 0., 0.,
       0., 0., 0., 0., 0., 0., 0., 0., 0., 0., 0., 0., 0., 0., 0., 0.,
       0., 0., 0., 0., 0., 0., 0., 0., 0., 0., 0., 0., 0., 0., 0., 0.,
       0., 0., 0., 0., 0., 0., 0., 0., 0., 0., 0., 0., 0., 0., 0., 0.,
       0., 0., 0., 0., 0., 0., 0., 0., 0., 0., 0., 0., 0., 0., 0., 0.,
       0., 0., 0., 0., 0., 0., 0., 0., 0., 0., 0., 0., 0., 0., 0., 0.,
       0., 0., 0., 0., 0., 0., 0., 0., 0., 0., 0., 0., 0., 0., 0., 0.,
       0., 0., 0., 0., 0., 0., 0., 0., 0., 0., 0., 0., 0., 0., 0., 0.,
       0., 0., 0., 0., 0., 0., 0., 0., 0., 0., 0., 0., 0., 0., 0., 0.,
       0., 0., 0., 0., 0., 0., 0., 0., 0., 0., 0., 0., 0., 0., 0., 0.,
       0., 0., 0., 0., 0., 0., 0., 0., 0., 0., 0., 0., 0., 0., 0., 0.,
       0., 0., 0., 0., 0., 0., 0., 0., 0., 0., 0., 0., 0., 0., 0., 0.,
       0., 0., 0., 0., 0., 0., 0., 0., 0., 0., 0., 0., 0., 0., 0., 0.,
       0., 0., 0., 0., 0., 0., 0., 0., 0., 0., 0., 0., 0., 0., 0., 0.,
       0., 0., 0., 0., 0., 0., 0., 0., 0., 0., 0., 0., 0., 0., 0., 0.,
       0., 0., 0., 0., 0., 0., 0., 0., 0., 0., 0., 0., 0., 0., 0., 0.,
       0., 0., 0., 0., 0., 0., 0., 0., 0., 0., 0., 0., 0., 0., 0., 0.,
       0., 0., 0., 0., 0., 0., 0., 0., 0., 0., 0., 0., 0., 0., 0., 0.,
       0., 0., 0., 0., 0., 0., 0., 0., 0., 0., 0., 0., 0., 0., 0., 0.,
       0., 0., 0., 0., 0., 0., 0., 0., 0., 0., 0., 0., 0., 0., 0., 0.,
       0., 0., 0., 0., 0., 0., 0., 0., 0., 0., 0., 0., 0., 0., 0., 0.,
       0., 0., 0., 0., 0., 0., 0., 0., 0., 0., 0., 0., 0., 0., 0., 0.,
       0., 0., 0., 0., 0., 0., 0., 0., 0., 0., 0., 0., 0., 0., 0., 0.,
       0., 0., 0., 0., 0., 0., 0., 0., 0., 0., 0., 0., 0., 0., 0., 0.,
       0., 0., 0., 0., 0., 0., 0., 0., 0., 0., 0., 0., 0., 0., 0., 0.,
       0., 0., 0., 0., 0., 0., 0., 0., 0., 0., 0., 0., 0., 0., 0., 0.,
       0., 0., 0., 0., 0., 0., 0., 0., 0., 0., 0., 0., 0., 0., 0., 0.,
       0., 0., 0., 0., 0., 0., 0., 0., 0., 0., 0., 0., 0., 0., 0., 0.,
       0., 0., 0., 0., 0., 0., 0., 0., 0., 0., 0., 0., 0., 0., 0., 0.,
       0., 0., 0., 0., 0., 0., 0., 0., 0., 0., 0., 0., 0., 0., 0., 0.,
       0., 0., 0., 0., 0., 0., 0., 0., 0., 0., 0., 0., 0., 0., 0., 0.,
       0., 0., 0., 0., 0., 0., 0., 0., 0., 0., 0., 0., 0., 0., 0., 0.,
       0., 0., 0., 0., 0., 0., 0., 0., 0., 0., 0., 0., 0., 0., 0., 0.,
       0., 0., 0., 0., 0., 0., 0., 0., 0., 0., 0., 0., 0., 0., 0., 0.,
       0., 0., 0., 0., 0., 0., 0., 0., 0., 0., 0., 0., 0., 0., 0., 0.,
       0., 0., 0., 0., 0., 0., 0., 0., 0., 0., 0., 0., 0., 0., 0., 0.,
       0., 0., 0., 0., 0., 0., 0., 0., 0., 0., 0., 0., 0., 0., 0., 0.,
       0., 0., 0., 0., 0., 0., 0., 0., 0., 0., 0., 0., 0., 0., 0., 0.,
       0., 0., 0., 0., 0., 0., 0., 0., 0., 0., 0., 0., 0., 0., 0., 0.,
       0., 0., 0., 0., 0., 0., 0., 0., 0., 0., 0., 0., 0., 0., 0., 0.,
       0., 0., 0., 0., 0., 0., 0., 0., 0., 0., 0., 0., 0., 0., 0., 0.,
       0., 0., 0., 0., 0., 0., 0., 0., 0., 0., 0., 0., 0., 0., 0., 0.,
       0., 0., 0., 0., 0., 0., 0., 0., 0., 0., 0., 0., 0., 0., 0., 0.,
       0., 0., 0., 0., 0., 0., 0., 0., 0., 0., 0., 0., 0., 0., 0., 0.,
       0., 0., 0., 0., 0., 0., 0., 0., 0., 0., 0., 0., 0., 0., 0., 0.,
       0., 0., 0., 0., 0., 0., 0., 0., 0., 0., 0., 0., 0., 0., 0., 0.,
       0., 0., 0., 0., 0., 0., 0., 0. ]
   oob_error: 2.6771653543307089e-001
   ntrees: 50
   trees:
      -
         nodes:
            -
               depth: 0
               value: 4.
               norm_class_idx: 4
               splits:
                  - { var:16, quality:5.2303916931152344e+001,
                      le:8.1778027117252350e-002 }
            -
               depth: 1
               value: 4.
               norm_class_idx: 4
               splits:
                  - { var:1563, quality:4.6992050170898438e+001,
                      le:4.4233679771423340e-002 }
            -
               depth: 2
               value: 4.
               norm_class_idx: 4
               splits:
                  - { var:622, quality:4.3479526519775391e+001,
                      le:6.9709721719846129e-004 }
            -
               depth: 3
               value: 4.
               norm_class_idx: 4
               splits:
                  - { var:998, quality:3.6412696838378906e+001,
                      le:2.1118879318237305e-001 }
            -
               depth: 4
               value: 5.
               norm_class_idx: 5
               splits:
                  - { var:1660, quality:3.0588115692138672e+001,
                      le:4.1687369346618652e-001 }
            -
               depth: 5
               value: 5.
               norm_class_idx: 5
            -
               depth: 5
               value: 11.
               norm_class_idx: 11
            -
               depth: 4
               value: 4.
               norm_class_idx: 4
               splits:
                  - { var:566, quality:3.7306449890136719e+001,
                      le:3.4904837608337402e-001 }
            -
               depth: 5
               value: 4.
               norm_class_idx: 4
            -
               depth: 5
               value: 1.
               norm_class_idx: 1
            -
               depth: 3
               value: 8.
               norm_class_idx: 8
               splits:
                  - { var:1521, quality:3.2867019653320312e+001,
                      le:3.9771005511283875e-002 }
            -
               depth: 4
               value: 6.
               norm_class_idx: 6
               splits:
                  - { var:357, quality:2.0120967864990234e+001,
                      le:1.8605696037411690e-002 }
            -
               depth: 5
               value: 6.
               norm_class_idx: 6
            -
               depth: 5
               value: 8.
               norm_class_idx: 8
            -
               depth: 4
               value: 8.
               norm_class_idx: 8
               splits:
                  - { var:1203, quality:2.2086956024169922e+001,
                      le:3.1110048294067383e-001 }
            -
               depth: 5
               value: 8.
               norm_class_idx: 8
            -
               depth: 5
               value: 12.
               norm_class_idx: 12
            -
               depth: 2
               value: 0.
               norm_class_idx: 0
               splits:
                  - { var:1635, quality:2.9422222137451172e+001,
                      le:6.6423632204532623e-002 }
            -
               depth: 3
               value: 0.
               norm_class_idx: 0
               splits:
                  - { var:90, quality:2.8068965911865234e+001,
                      le:4.1629201173782349e-001 }
            -
               depth: 4
               value: 0.
               norm_class_idx: 0
               splits:
                  - { var:1178, quality:29., le:1.6603359952569008e-002 }
            -
               depth: 5
               value: 0.
               norm_class_idx: 0
            -
               depth: 5
               value: 2.
               norm_class_idx: 2
            -
               depth: 4
               value: 9.
               norm_class_idx: 9
            -
               depth: 3
               value: 3.
               norm_class_idx: 3
            -
               depth: 1
               value: 12.
               norm_class_idx: 12
               splits:
                  - { var:895, quality:26., le:4.0089535713195801e-001 }
            -
               depth: 2
               value: 12.
               norm_class_idx: 12
            -
               depth: 2
               value: 4.
               norm_class_idx: 4
      -
         nodes:
            -
               depth: 0
               value: 1.
               norm_class_idx: 1
               splits:
                  - { var:602, quality:4.9277572631835938e+001,
                      le:3.3665269613265991e-001 }
            -
               depth: 1
               value: 7.
               norm_class_idx: 7
               splits:
                  - { var:15, quality:4.2246994018554688e+001,
                      le:2.3746220767498016e-001 }
            -
               depth: 2
               value: 7.
               norm_class_idx: 7
               splits:
                  - { var:1582, quality:3.9168540954589844e+001,
                      le:5.6945249438285828e-002 }
            -
               depth: 3
               value: 7.
               norm_class_idx: 7
               splits:
                  - { var:793, quality:3.7487232208251953e+001,
                      le:5.0447687506675720e-002 }
            -
               depth: 4
               value: 7.
               norm_class_idx: 7
               splits:
                  - { var:1419, quality:3.5699672698974609e+001,
                      le:2.6088616251945496e-001 }
            -
               depth: 5
               value: 7.
               norm_class_idx: 7
            -
               depth: 5
               value: 8.
               norm_class_idx: 8
            -
               depth: 4
               value: 6.
               norm_class_idx: 6
               splits:
                  - { var:692, quality:2.4586206436157227e+001,
                      le:3.1677779555320740e-001 }
            -
               depth: 5
               value: 5.
               norm_class_idx: 5
            -
               depth: 5
               value: 6.
               norm_class_idx: 6
            -
               depth: 3
               value: 0.
               norm_class_idx: 0
            -
               depth: 2
               value: 12.
               norm_class_idx: 12
               splits:
                  - { var:72, quality:2.0500000000000000e+001,
                      le:1.1815899610519409e-001 }
            -
               depth: 3
               value: 12.
               norm_class_idx: 12
            -
               depth: 3
               value: 2.
               norm_class_idx: 2
            -
               depth: 1
               value: 1.
               norm_class_idx: 1
               splits:
                  - { var:89, quality:3.5358585357666016e+001,
                      le:8.3362562581896782e-003 }
            -
               depth: 2
               value: 1.
               norm_class_idx: 1
               splits:
                  - { var:277, quality:3.4060607910156250e+001,
                      le:4.2494125664234161e-003 }
            -
               depth: 3
               value: 1.
               norm_class_idx: 1
               splits:
                  - { var:1007, quality:3.1666666030883789e+001,
                      le:3.5580104589462280e-001 }
            -
               depth: 4
               value: 1.
               norm_class_idx: 1
            -
               depth: 4
               value: 1.
               norm_class_idx: 1
            -
               depth: 3
               value: 2.
               norm_class_idx: 2
            -
               depth: 2
               value: 4.
               norm_class_idx: 4
               splits:
                  - { var:103, quality:11., le:4.1997283697128296e-001 }
            -
               depth: 3
               value: 4.
               norm_class_idx: 4
            -
               depth: 3
               value: 10.
               norm_class_idx: 10
      -
         nodes:
            -
               depth: 0
               value: 12.
               norm_class_idx: 12
               splits:
                  - { var:1473, quality:4.8733257293701172e+001,
                      le:1.5799592435359955e-001 }
            -
               depth: 1
               value: 0.
               norm_class_idx: 0
               splits:
                  - { var:112, quality:4.4987804412841797e+001,
                      le:3.9574766159057617e-001 }
            -
               depth: 2
               value: 0.
               norm_class_idx: 0
               splits:
                  - { var:602, quality:3.6834732055664062e+001,
                      le:3.3452254533767700e-001 }
            -
               depth: 3
               value: 0.
               norm_class_idx: 0
               splits:
                  - { var:924, quality:3.4147621154785156e+001,
                      le:3.5261048469692469e-003 }
            -
               depth: 4
               value: 0.
               norm_class_idx: 0
               splits:
                  - { var:1610, quality:3.0996145248413086e+001,
                      le:1.0946446657180786e-001 }
            -
               depth: 5
               value: 7.
               norm_class_idx: 7
            -
               depth: 5
               value: 0.
               norm_class_idx: 0
            -
               depth: 4
               value: 5.
               norm_class_idx: 5
               splits:
                  - { var:283, quality:2.1069023132324219e+001,
                      le:2.4446859024465084e-003 }
            -
               depth: 5
               value: 6.
               norm_class_idx: 6
            -
               depth: 5
               value: 5.
               norm_class_idx: 5
            -
               depth: 3
               value: 1.
               norm_class_idx: 1
               splits:
                  - { var:422, quality:2.6303030014038086e+001,
                      le:1.1251449584960938e-002 }
            -
               depth: 4
               value: 1.
               norm_class_idx: 1
               splits:
                  - { var:511, quality:2.5814815521240234e+001,
                      le:8.5855089128017426e-003 }
            -
               depth: 5
               value: 1.
               norm_class_idx: 1
            -
               depth: 5
               value: 2.
               norm_class_idx: 2
            -
               depth: 4
               value: 4.
               norm_class_idx: 4
            -
               depth: 2
               value: 11.
               norm_class_idx: 11
               splits:
                  - { var:1349, quality:3.0222221374511719e+001,
                      le:1.6337203979492188e-001 }
            -
               depth: 3
               value: 11.
               norm_class_idx: 11
               splits:
                  - { var:990, quality:31., le:1.0397289693355560e-001 }
            -
               depth: 4
               value: 11.
               norm_class_idx: 11
            -
               depth: 4
               value: 10.
               norm_class_idx: 10
            -
               depth: 3
               value: 10.
               norm_class_idx: 10
            -
               depth: 1
               value: 12.
               norm_class_idx: 12
               splits:
                  - { var:1170, quality:4.0587253570556641e+001,
                      le:9.1762065887451172e-002 }
            -
               depth: 2
               value: 12.
               norm_class_idx: 12
               splits:
                  - { var:448, quality:33., le:2.8918433934450150e-002 }
            -
               depth: 3
               value: 12.
               norm_class_idx: 12
            -
               depth: 3
               value: 8.
               norm_class_idx: 8
            -
               depth: 2
               value: 8.
               norm_class_idx: 8
               splits:
                  - { var:580, quality:1.8715789794921875e+001,
                      le:1.7039453983306885e-001 }
            -
               depth: 3
               value: 8.
               norm_class_idx: 8
               splits:
                  - { var:216, quality:18., le:3.0591094493865967e-001 }
            -
               depth: 4
               value: 8.
               norm_class_idx: 8
            -
               depth: 4
               value: 5.
               norm_class_idx: 5
            -
               depth: 3
               value: 3.
               norm_class_idx: 3
      -
         nodes:
            -
               depth: 0
               value: 2.
               norm_class_idx: 2
               splits:
                  - { var:1743, quality:5.1771736145019531e+001,
                      le:3.7513442803174257e-003 }
            -
               depth: 1
               value: 2.
               norm_class_idx: 2
               splits:
                  - { var:542, quality:4.6066360473632813e+001,
                      le:4.0511284023523331e-003 }
            -
               depth: 2
               value: 2.
               norm_class_idx: 2
               splits:
                  - { var:694, quality:4.6305198669433594e+001,
                      le:2.2218540310859680e-002 }
            -
               depth: 3
               value: 10.
               norm_class_idx: 10
               splits:
                  - { var:638, quality:3.9773498535156250e+001,
                      le:4.6091237664222717e-001 }
            -
               depth: 4
               value: 10.
               norm_class_idx: 10
               splits:
                  - { var:53, quality:3.5219764709472656e+001,
                      le:1.0892713442444801e-002 }
            -
               depth: 5
               value: 10.
               norm_class_idx: 10
            -
               depth: 5
               value: 0.
               norm_class_idx: 0
            -
               depth: 4
               value: 1.
               norm_class_idx: 1
               splits:
                  - { var:756, quality:2.7333333969116211e+001,
                      le:9.1308817267417908e-002 }
            -
               depth: 5
               value: 3.
               norm_class_idx: 3
            -
               depth: 5
               value: 1.
               norm_class_idx: 1
            -
               depth: 3
               value: 2.
               norm_class_idx: 2
               splits:
                  - { var:1063, quality:3.1931818008422852e+001,
                      le:1.7107622697949409e-002 }
            -
               depth: 4
               value: 2.
               norm_class_idx: 2
               splits:
                  - { var:1405, quality:3.1062500000000000e+001,
                      le:2.8743416070938110e-001 }
            -
               depth: 5
               value: 2.
               norm_class_idx: 2
            -
               depth: 5
               value: 7.
               norm_class_idx: 7
            -
               depth: 4
               value: 12.
               norm_class_idx: 12
            -
               depth: 2
               value: 9.
               norm_class_idx: 9
               splits:
                  - { var:1405, quality:3.7300437927246094e+001,
                      le:7.1977679617702961e-003 }
            -
               depth: 3
               value: 5.
               norm_class_idx: 5
               splits:
                  - { var:415, quality:1.8950000762939453e+001,
                      le:1.2360425293445587e-001 }
            -
               depth: 4
               value: 5.
               norm_class_idx: 5
               splits:
                  - { var:645, quality:1.8958333969116211e+001,
                      le:2.8466063737869263e-001 }
            -
               depth: 5
               value: 6.
               norm_class_idx: 6
            -
               depth: 5
               value: 5.
               norm_class_idx: 5
            -
               depth: 4
               value: 8.
               norm_class_idx: 8
            -
               depth: 3
               value: 9.
               norm_class_idx: 9
               splits:
                  - { var:404, quality:3.3395832061767578e+001,
                      le:5.1361080259084702e-002 }
            -
               depth: 4
               value: 9.
               norm_class_idx: 9
               splits:
                  - { var:474, quality:32., le:2.1863821893930435e-002 }
            -
               depth: 5
               value: 9.
               norm_class_idx: 9
            -
               depth: 5
               value: 3.
               norm_class_idx: 3
            -
               depth: 4
               value: 4.
               norm_class_idx: 4
            -
               depth: 1
               value: 12.
               norm_class_idx: 12
               splits:
                  - { var:1012, quality:3.2285713195800781e+001,
                      le:2.7792677283287048e-001 }
            -
               depth: 2
               value: 12.
               norm_class_idx: 12
            -
               depth: 2
               value: 8.
               norm_class_idx: 8
      -
         nodes:
            -
               depth: 0
               value: 5.
               norm_class_idx: 5
               splits:
                  - { var:373, quality:4.7634201049804688e+001,
                      le:3.8347601890563965e-001 }
            -
               depth: 1
               value: 5.
               norm_class_idx: 5
               splits:
                  - { var:1099, quality:4.3682636260986328e+001,
                      le:8.0598576460033655e-004 }
            -
               depth: 2
               value: 5.
               norm_class_idx: 5
               splits:
                  - { var:125, quality:4.0376956939697266e+001,
                      le:9.4503253698348999e-002 }
            -
               depth: 3
               value: 5.
               norm_class_idx: 5
               splits:
                  - { var:1525, quality:3.2896873474121094e+001,
                      le:4.6989315748214722e-001 }
            -
               depth: 4
               value: 5.
               norm_class_idx: 5
               splits:
                  - { var:461, quality:2.8255420684814453e+001,
                      le:2.8923887293785810e-003 }
            -
               depth: 5
               value: 5.
               norm_class_idx: 5
            -
               depth: 5
               value: 2.
               norm_class_idx: 2
            -
               depth: 4
               value: 5.
               norm_class_idx: 5
               splits:
                  - { var:1162, quality:20., le:1.6764825582504272e-001 }
            -
               depth: 5
               value: 5.
               norm_class_idx: 5
            -
               depth: 5
               value: 7.
               norm_class_idx: 7
            -
               depth: 3
               value: 0.
               norm_class_idx: 0
               splits:
                  - { var:1162, quality:3.0857143402099609e+001,
                      le:8.7171690538525581e-003 }
            -
               depth: 4
               value: 0.
               norm_class_idx: 0
               splits:
                  - { var:1557, quality:2.4799999237060547e+001,
                      le:6.6377215087413788e-002 }
            -
               depth: 5
               value: 4.
               norm_class_idx: 4
            -
               depth: 5
               value: 0.
               norm_class_idx: 0
            -
               depth: 4
               value: 4.
               norm_class_idx: 4
            -
               depth: 2
               value: 9.
               norm_class_idx: 9
               splits:
                  - { var:1213, quality:3.4603176116943359e+001,
                      le:2.4227811023592949e-002 }
            -
               depth: 3
               value: 9.
               norm_class_idx: 9
               splits:
                  - { var:1196, quality:31., le:9.2077599838376045e-003 }
            -
               depth: 4
               value: 3.
               norm_class_idx: 3
               splits:
                  - { var:296, quality:1.7470588684082031e+001,
                      le:4.2303901165723801e-002 }
            -
               depth: 5
               value: 3.
               norm_class_idx: 3
            -
               depth: 5
               value: 8.
               norm_class_idx: 8
            -
               depth: 4
               value: 9.
               norm_class_idx: 9
               splits:
                  - { var:323, quality:3.1250000000000000e+001,
                      le:3.8076438009738922e-002 }
            -
               depth: 5
               value: 7.
               norm_class_idx: 7
            -
               depth: 5
               value: 9.
               norm_class_idx: 9
            -
               depth: 3
               value: 8.
               norm_class_idx: 8
               splits:
                  - { var:760, quality:2.9318181991577148e+001,
                      le:1.4616006612777710e-001 }
            -
               depth: 4
               value: 12.
               norm_class_idx: 12
               splits:
                  - { var:847, quality:16., le:2.7114319801330566e-001 }
            -
               depth: 5
               value: 12.
               norm_class_idx: 12
            -
               depth: 5
               value: 6.
               norm_class_idx: 6
            -
               depth: 4
               value: 8.
               norm_class_idx: 8
               splits:
                  - { var:1312, quality:2.0100000381469727e+001,
                      le:1.3560249470174313e-002 }
            -
               depth: 5
               value: 8.
               norm_class_idx: 8
            -
               depth: 5
               value: 3.
               norm_class_idx: 3
            -
               depth: 1
               value: 11.
               norm_class_idx: 11
               splits:
                  - { var:1259, quality:3.4569202423095703e+001,
                      le:1.8032727530226111e-003 }
            -
               depth: 2
               value: 11.
               norm_class_idx: 11
               splits:
                  - { var:396, quality:2.6175115585327148e+001,
                      le:3.5867295227944851e-003 }
            -
               depth: 3
               value: 11.
               norm_class_idx: 11
               splits:
                  - { var:1360, quality:2.7275861740112305e+001,
                      le:1.1939493939280510e-002 }
            -
               depth: 4
               value: 11.
               norm_class_idx: 11
               splits:
                  - { var:144, quality:2.7666666030883789e+001,
                      le:1.7259913682937622e-001 }
            -
               depth: 5
               value: 11.
               norm_class_idx: 11
            -
               depth: 5
               value: 10.
               norm_class_idx: 10
            -
               depth: 4
               value: 10.
               norm_class_idx: 10
            -
               depth: 3
               value: 4.
               norm_class_idx: 4
            -
               depth: 2
               value: 10.
               norm_class_idx: 10
               splits:
                  - { var:90, quality:1.8757143020629883e+001,
                      le:1.1462122201919556e-001 }
            -
               depth: 3
               value: 10.
               norm_class_idx: 10
               splits:
                  - { var:838, quality:20., le:2.8459567576646805e-002 }
            -
               depth: 4
               value: 10.
               norm_class_idx: 10
            -
               depth: 4
               value: 4.
               norm_class_idx: 4
            -
               depth: 3
               value: 4.
               norm_class_idx: 4
      -
         nodes:
            -
               depth: 0
               value: 11.
               norm_class_idx: 11
               splits:
                  - { var:1093, quality:5.2143749237060547e+001,
                      le:6.1808675527572632e-001 }
            -
               depth: 1
               value: 10.
               norm_class_idx: 10
               splits:
                  - { var:42, quality:4.3942146301269531e+001,
                      le:2.7212254703044891e-002 }
            -
               depth: 2
               value: 10.
               norm_class_idx: 10
               splits:
                  - { var:616, quality:3.8519489288330078e+001,
                      le:3.7868171930313110e-002 }
            -
               depth: 3
               value: 1.
               norm_class_idx: 1
               splits:
                  - { var:1088, quality:3.0286653518676758e+001,
                      le:4.9007117748260498e-001 }
            -
               depth: 4
               value: 2.
               norm_class_idx: 2
               splits:
                  - { var:461, quality:2.6877550125122070e+001,
                      le:1.4241366647183895e-002 }
            -
               depth: 5
               value: 3.
               norm_class_idx: 3
            -
               depth: 5
               value: 2.
               norm_class_idx: 2
            -
               depth: 4
               value: 1.
               norm_class_idx: 1
               splits:
                  - { var:919, quality:19., le:2.0084610208868980e-002 }
            -
               depth: 5
               value: 1.
               norm_class_idx: 1
            -
               depth: 5
               value: 4.
               norm_class_idx: 4
            -
               depth: 3
               value: 8.
               norm_class_idx: 8
               splits:
                  - { var:1189, quality:3.6164180755615234e+001,
                      le:8.9131981134414673e-002 }
            -
               depth: 4
               value: 8.
               norm_class_idx: 8
               splits:
                  - { var:668, quality:3.3188125610351563e+001,
                      le:1.3085374236106873e-001 }
            -
               depth: 5
               value: 10.
               norm_class_idx: 10
            -
               depth: 5
               value: 8.
               norm_class_idx: 8
            -
               depth: 4
               value: 9.
               norm_class_idx: 9
            -
               depth: 2
               value: 12.
               norm_class_idx: 12
               splits:
                  - { var:304, quality:2.7588708877563477e+001,
                      le:4.9134641885757446e-002 }
            -
               depth: 3
               value: 0.
               norm_class_idx: 0
            -
               depth: 3
               value: 12.
               norm_class_idx: 12
               splits:
                  - { var:985, quality:2.7738094329833984e+001,
                      le:3.0504217743873596e-001 }
            -
               depth: 4
               value: 12.
               norm_class_idx: 12
               splits:
                  - { var:9, quality:28., le:4.1428154706954956e-001 }
            -
               depth: 5
               value: 12.
               norm_class_idx: 12
            -
               depth: 5
               value: 2.
               norm_class_idx: 2
            -
               depth: 4
               value: 2.
               norm_class_idx: 2
            -
               depth: 1
               value: 11.
               norm_class_idx: 11
               splits:
                  - { var:1746, quality:32., le:1.0107199661433697e-002 }
            -
               depth: 2
               value: 11.
               norm_class_idx: 11
            -
               depth: 2
               value: 3.
               norm_class_idx: 3
      -
         nodes:
            -
               depth: 0
               value: 3.
               norm_class_idx: 3
               splits:
                  - { var:648, quality:4.2617164611816406e+001,
                      le:3.9998177438974380e-002 }
            -
               depth: 1
               value: 7.
               norm_class_idx: 7
               splits:
                  - { var:215, quality:4.1512832641601563e+001,
                      le:3.9341105148196220e-003 }
            -
               depth: 2
               value: 7.
               norm_class_idx: 7
               splits:
                  - { var:981, quality:3.7692794799804687e+001,
                      le:1.2425288558006287e-002 }
            -
               depth: 3
               value: 11.
               norm_class_idx: 11
               splits:
                  - { var:1174, quality:3.3083541870117187e+001,
                      le:4.4130152463912964e-001 }
            -
               depth: 4
               value: 10.
               norm_class_idx: 10
               splits:
                  - { var:1433, quality:1.5088889122009277e+001,
                      le:1.1201673001050949e-001 }
            -
               depth: 5
               value: 10.
               norm_class_idx: 10
            -
               depth: 5
               value: 7.
               norm_class_idx: 7
            -
               depth: 4
               value: 11.
               norm_class_idx: 11
               splits:
                  - { var:1358, quality:31., le:1.6388811171054840e-001 }
            -
               depth: 5
               value: 11.
               norm_class_idx: 11
            -
               depth: 5
               value: 10.
               norm_class_idx: 10
            -
               depth: 3
               value: 3.
               norm_class_idx: 3
               splits:
                  - { var:674, quality:3.6919540405273438e+001,
                      le:3.5204732418060303e-001 }
            -
               depth: 4
               value: 3.
               norm_class_idx: 3
               splits:
                  - { var:1498, quality:3.6246589660644531e+001,
                      le:3.3447753638029099e-002 }
            -
               depth: 5
               value: 7.
               norm_class_idx: 7
            -
               depth: 5
               value: 3.
               norm_class_idx: 3
            -
               depth: 4
               value: 1.
               norm_class_idx: 1
               splits:
                  - { var:893, quality:2.4658384323120117e+001,
                      le:1.4424084685742855e-002 }
            -
               depth: 5
               value: 1.
               norm_class_idx: 1
            -
               depth: 5
               value: 10.
               norm_class_idx: 10
            -
               depth: 2
               value: 0.
               norm_class_idx: 0
               splits:
                  - { var:1321, quality:2.5413333892822266e+001,
                      le:3.5208512563258410e-003 }
            -
               depth: 3
               value: 6.
               norm_class_idx: 6
               splits:
                  - { var:793, quality:5.7272725105285645e+000,
                      le:1.8171793222427368e-001 }
            -
               depth: 4
               value: 0.
               norm_class_idx: 0
               splits:
                  - { var:1062, quality:3.6666667461395264e+000,
                      le:4.0912586450576782e-001 }
            -
               depth: 5
               value: 0.
               norm_class_idx: 0
            -
               depth: 5
               value: 10.
               norm_class_idx: 10
            -
               depth: 4
               value: 6.
               norm_class_idx: 6
            -
               depth: 3
               value: 0.
               norm_class_idx: 0
               splits:
                  - { var:559, quality:25., le:2.3499259352684021e-001 }
            -
               depth: 4
               value: 0.
               norm_class_idx: 0
            -
               depth: 4
               value: 3.
               norm_class_idx: 3
            -
               depth: 1
               value: 8.
               norm_class_idx: 8
               splits:
                  - { var:235, quality:3.2981651306152344e+001,
                      le:7.9628825187683105e-002 }
            -
               depth: 2
               value: 8.
               norm_class_idx: 8
               splits:
                  - { var:62, quality:2.8013902664184570e+001,
                      le:2.9928478598594666e-001 }
            -
               depth: 3
               value: 6.
               norm_class_idx: 6
               splits:
                  - { var:494, quality:1.9722860336303711e+001,
                      le:2.7685374021530151e-001 }
            -
               depth: 4
               value: 5.
               norm_class_idx: 5
               splits:
                  - { var:655, quality:1.4761363983154297e+001,
                      le:6.2887772917747498e-002 }
            -
               depth: 5
               value: 3.
               norm_class_idx: 3
            -
               depth: 5
               value: 5.
               norm_class_idx: 5
            -
               depth: 4
               value: 6.
               norm_class_idx: 6
               splits:
                  - { var:1015, quality:1.7559999465942383e+001,
                      le:2.3227988276630640e-003 }
            -
               depth: 5
               value: 6.
               norm_class_idx: 6
            -
               depth: 5
               value: 8.
               norm_class_idx: 8
            -
               depth: 3
               value: 8.
               norm_class_idx: 8
               splits:
                  - { var:253, quality:2.1590909957885742e+001,
                      le:2.6636905968189240e-002 }
            -
               depth: 4
               value: 5.
               norm_class_idx: 5
            -
               depth: 4
               value: 8.
               norm_class_idx: 8
               splits:
                  - { var:391, quality:22., le:3.7311884760856628e-001 }
            -
               depth: 5
               value: 8.
               norm_class_idx: 8
            -
               depth: 5
               value: 4.
               norm_class_idx: 4
            -
               depth: 2
               value: 12.
               norm_class_idx: 12
      -
         nodes:
            -
               depth: 0
               value: 8.
               norm_class_idx: 8
               splits:
                  - { var:43, quality:5.7931034088134766e+001,
                      le:3.5260058939456940e-002 }
            -
               depth: 1
               value: 8.
               norm_class_idx: 8
               splits:
                  - { var:674, quality:5.1929725646972656e+001,
                      le:3.5917037725448608e-001 }
            -
               depth: 2
               value: 8.
               norm_class_idx: 8
               splits:
                  - { var:667, quality:4.9129386901855469e+001,
                      le:5.3952991962432861e-002 }
            -
               depth: 3
               value: 0.
               norm_class_idx: 0
               splits:
                  - { var:1408, quality:4.6290908813476563e+001,
                      le:5.0238919258117676e-001 }
            -
               depth: 4
               value: 0.
               norm_class_idx: 0
               splits:
                  - { var:189, quality:4.1855663299560547e+001,
                      le:1.8076160550117493e-001 }
            -
               depth: 5
               value: 9.
               norm_class_idx: 9
            -
               depth: 5
               value: 0.
               norm_class_idx: 0
            -
               depth: 4
               value: 11.
               norm_class_idx: 11
               splits:
                  - { var:855, quality:2.8500000000000000e+001,
                      le:2.6569446921348572e-001 }
            -
               depth: 5
               value: 11.
               norm_class_idx: 11
            -
               depth: 5
               value: 10.
               norm_class_idx: 10
            -
               depth: 3
               value: 8.
               norm_class_idx: 8
               splits:
                  - { var:1132, quality:3.1811965942382812e+001,
                      le:3.1976813916116953e-003 }
            -
               depth: 4
               value: 2.
               norm_class_idx: 2
            -
               depth: 4
               value: 8.
               norm_class_idx: 8
               splits:
                  - { var:1466, quality:3.3324325561523438e+001,
                      le:3.3561211824417114e-001 }
            -
               depth: 5
               value: 8.
               norm_class_idx: 8
            -
               depth: 5
               value: 6.
               norm_class_idx: 6
            -
               depth: 2
               value: 1.
               norm_class_idx: 1
               splits:
                  - { var:748, quality:2.9531532287597656e+001,
                      le:7.9974897205829620e-002 }
            -
               depth: 3
               value: 1.
               norm_class_idx: 1
               splits:
                  - { var:89, quality:3.1342857360839844e+001,
                      le:3.2401125878095627e-002 }
            -
               depth: 4
               value: 1.
               norm_class_idx: 1
               splits:
                  - { var:1270, quality:3.2060607910156250e+001,
                      le:3.3230151981115341e-002 }
            -
               depth: 5
               value: 1.
               norm_class_idx: 1
            -
               depth: 5
               value: 5.
               norm_class_idx: 5
            -
               depth: 4
               value: 10.
               norm_class_idx: 10
            -
               depth: 3
               value: 3.
               norm_class_idx: 3
            -
               depth: 1
               value: 12.
               norm_class_idx: 12
               splits:
                  - { var:56, quality:32., le:4.3515623547136784e-003 }
            -
               depth: 2
               value: 12.
               norm_class_idx: 12
            -
               depth: 2
               value: 0.
               norm_class_idx: 0
      -
         nodes:
            -
               depth: 0
               value: 9.
               norm_class_idx: 9
               splits:
                  - { var:103, quality:5.0498157501220703e+001,
                      le:5.7928735017776489e-001 }
            -
               depth: 1
               value: 9.
               norm_class_idx: 9
               splits:
                  - { var:515, quality:4.3629966735839844e+001,
                      le:5.9119132347404957e-003 }
            -
               depth: 2
               value: 7.
               norm_class_idx: 7
               splits:
                  - { var:331, quality:3.6619560241699219e+001,
                      le:3.2837521284818649e-002 }
            -
               depth: 3
               value: 7.
               norm_class_idx: 7
               splits:
                  - { var:44, quality:3.5399520874023438e+001,
                      le:2.4779491126537323e-001 }
            -
               depth: 4
               value: 7.
               norm_class_idx: 7
               splits:
                  - { var:836, quality:3.4348751068115234e+001,
                      le:1.9392874836921692e-001 }
            -
               depth: 5
               value: 7.
               norm_class_idx: 7
            -
               depth: 5
               value: 1.
               norm_class_idx: 1
            -
               depth: 4
               value: 4.
               norm_class_idx: 4
               splits:
                  - { var:1719, quality:2.4984127044677734e+001,
                      le:2.2366256453096867e-003 }
            -
               depth: 5
               value: 4.
               norm_class_idx: 4
            -
               depth: 5
               value: 0.
               norm_class_idx: 0
            -
               depth: 3
               value: 12.
               norm_class_idx: 12
               splits:
                  - { var:1186, quality:2.5438735961914063e+001,
                      le:1.1126415804028511e-002 }
            -
               depth: 4
               value: 2.
               norm_class_idx: 2
               splits:
                  - { var:490, quality:9., le:3.2539743185043335e-001 }
            -
               depth: 5
               value: 0.
               norm_class_idx: 0
            -
               depth: 5
               value: 2.
               norm_class_idx: 2
            -
               depth: 4
               value: 12.
               norm_class_idx: 12
               splits:
                  - { var:253, quality:23., le:6.6778764128684998e-002 }
            -
               depth: 5
               value: 12.
               norm_class_idx: 12
            -
               depth: 5
               value: 8.
               norm_class_idx: 8
            -
               depth: 2
               value: 9.
               norm_class_idx: 9
               splits:
                  - { var:1208, quality:3.8795093536376953e+001,
                      le:6.4612016081809998e-002 }
            -
               depth: 3
               value: 5.
               norm_class_idx: 5
               splits:
                  - { var:787, quality:2.7384614944458008e+001,
                      le:3.9909514784812927e-001 }
            -
               depth: 4
               value: 6.
               norm_class_idx: 6
               splits:
                  - { var:1602, quality:2.0166666030883789e+001,
                      le:2.3839110136032104e-001 }
            -
               depth: 5
               value: 6.
               norm_class_idx: 6
            -
               depth: 5
               value: 0.
               norm_class_idx: 0
            -
               depth: 4
               value: 5.
               norm_class_idx: 5
               splits:
                  - { var:1070, quality:24., le:1.3792195916175842e-001 }
            -
               depth: 5
               value: 5.
               norm_class_idx: 5
            -
               depth: 5
               value: 0.
               norm_class_idx: 0
            -
               depth: 3
               value: 9.
               norm_class_idx: 9
               splits:
                  - { var:1111, quality:2.8571428298950195e+001,
                      le:1.5724758850410581e-003 }
            -
               depth: 4
               value: 0.
               norm_class_idx: 0
            -
               depth: 4
               value: 9.
               norm_class_idx: 9
               splits:
                  - { var:629, quality:28., le:1.5310174226760864e-001 }
            -
               depth: 5
               value: 9.
               norm_class_idx: 9
            -
               depth: 5
               value: 5.
               norm_class_idx: 5
            -
               depth: 1
               value: 11.
               norm_class_idx: 11
               splits:
                  - { var:1136, quality:3.0895833969116211e+001,
                      le:3.8280975073575974e-002 }
            -
               depth: 2
               value: 11.
               norm_class_idx: 11
               splits:
                  - { var:1185, quality:2.8258064270019531e+001,
                      le:4.1697181761264801e-002 }
            -
               depth: 3
               value: 11.
               norm_class_idx: 11
               splits:
                  - { var:1388, quality:31., le:6.0891643166542053e-002 }
            -
               depth: 4
               value: 11.
               norm_class_idx: 11
            -
               depth: 4
               value: 10.
               norm_class_idx: 10
            -
               depth: 3
               value: 10.
               norm_class_idx: 10
            -
               depth: 2
               value: 10.
               norm_class_idx: 10
      -
         nodes:
            -
               depth: 0
               value: 10.
               norm_class_idx: 10
               splits:
                  - { var:103, quality:4.8993869781494141e+001,
                      le:4.7859406471252441e-001 }
            -
               depth: 1
               value: 3.
               norm_class_idx: 3
               splits:
                  - { var:522, quality:4.6398273468017578e+001,
                      le:3.8483661413192749e-001 }
            -
               depth: 2
               value: 9.
               norm_class_idx: 9
               splits:
                  - { var:1591, quality:3.9748378753662109e+001,
                      le:1.4780476689338684e-002 }
            -
               depth: 3
               value: 9.
               norm_class_idx: 9
               splits:
                  - { var:924, quality:3.8618030548095703e+001,
                      le:2.0744420588016510e-001 }
            -
               depth: 4
               value: 9.
               norm_class_idx: 9
               splits:
                  - { var:1140, quality:3.3059459686279297e+001,
                      le:2.0200237631797791e-001 }
            -
               depth: 5
               value: 9.
               norm_class_idx: 9
            -
               depth: 5
               value: 3.
               norm_class_idx: 3
            -
               depth: 4
               value: 12.
               norm_class_idx: 12
               splits:
                  - { var:751, quality:2.8959869384765625e+001,
                      le:1.2167022563517094e-002 }
            -
               depth: 5
               value: 12.
               norm_class_idx: 12
            -
               depth: 5
               value: 8.
               norm_class_idx: 8
            -
               depth: 3
               value: 0.
               norm_class_idx: 0
               splits:
                  - { var:1723, quality:1.9666666030883789e+001,
                      le:4.2693233489990234e-001 }
            -
               depth: 4
               value: 0.
               norm_class_idx: 0
            -
               depth: 4
               value: 3.
               norm_class_idx: 3
            -
               depth: 2
               value: 1.
               norm_class_idx: 1
               splits:
                  - { var:508, quality:2.3083333969116211e+001,
                      le:1.8799786269664764e-001 }
            -
               depth: 3
               value: 1.
               norm_class_idx: 1
               splits:
                  - { var:1646, quality:24., le:3.5989139229059219e-002 }
            -
               depth: 4
               value: 1.
               norm_class_idx: 1
            -
               depth: 4
               value: 10.
               norm_class_idx: 10
            -
               depth: 3
               value: 3.
               norm_class_idx: 3
            -
               depth: 1
               value: 11.
               norm_class_idx: 11
               splits:
                  - { var:1304, quality:3.4200000762939453e+001,
                      le:1.0024338215589523e-001 }
            -
               depth: 2
               value: 11.
               norm_class_idx: 11
               splits:
                  - { var:989, quality:2.7928571701049805e+001,
                      le:7.4964989908039570e-003 }
            -
               depth: 3
               value: 11.
               norm_class_idx: 11
               splits:
                  - { var:1010, quality:28., le:1.2136003375053406e-001 }
            -
               depth: 4
               value: 11.
               norm_class_idx: 11
            -
               depth: 4
               value: 10.
               norm_class_idx: 10
            -
               depth: 3
               value: 10.
               norm_class_idx: 10
            -
               depth: 2
               value: 10.
               norm_class_idx: 10
      -
         nodes:
            -
               depth: 0
               value: 8.
               norm_class_idx: 8
               splits:
                  - { var:1420, quality:5.0197994232177734e+001,
                      le:2.9209628701210022e-003 }
            -
               depth: 1
               value: 0.
               norm_class_idx: 0
               splits:
                  - { var:1591, quality:4.2680953979492188e+001,
                      le:2.4179190397262573e-002 }
            -
               depth: 2
               value: 1.
               norm_class_idx: 1
               splits:
                  - { var:674, quality:4.4345912933349609e+001,
                      le:3.5204732418060303e-001 }
            -
               depth: 3
               value: 7.
               norm_class_idx: 7
               splits:
                  - { var:272, quality:3.8289398193359375e+001,
                      le:1.9110406935214996e-001 }
            -
               depth: 4
               value: 7.
               norm_class_idx: 7
               splits:
                  - { var:625, quality:3.6587360382080078e+001,
                      le:2.0551969110965729e-001 }
            -
               depth: 5
               value: 7.
               norm_class_idx: 7
            -
               depth: 5
               value: 11.
               norm_class_idx: 11
            -
               depth: 4
               value: 9.
               norm_class_idx: 9
               splits:
                  - { var:1170, quality:2.5031745910644531e+001,
                      le:8.8236972689628601e-002 }
            -
               depth: 5
               value: 0.
               norm_class_idx: 0
            -
               depth: 5
               value: 9.
               norm_class_idx: 9
            -
               depth: 3
               value: 1.
               norm_class_idx: 1
               splits:
                  - { var:787, quality:2.9098039627075195e+001,
                      le:3.0222576856613159e-001 }
            -
               depth: 4
               value: 1.
               norm_class_idx: 1
               splits:
                  - { var:355, quality:3.0187500000000000e+001,
                      le:2.9031708836555481e-001 }
            -
               depth: 5
               value: 1.
               norm_class_idx: 1
            -
               depth: 5
               value: 10.
               norm_class_idx: 10
            -
               depth: 4
               value: 4.
               norm_class_idx: 4
            -
               depth: 2
               value: 0.
               norm_class_idx: 0
               splits:
                  - { var:731, quality:2.6083333969116211e+001,
                      le:2.7378951199352741e-003 }
            -
               depth: 3
               value: 0.
               norm_class_idx: 0
               splits:
                  - { var:1705, quality:24., le:4.2693233489990234e-001 }
            -
               depth: 4
               value: 0.
               norm_class_idx: 0
            -
               depth: 4
               value: 3.
               norm_class_idx: 3
            -
               depth: 3
               value: 2.
               norm_class_idx: 2
            -
               depth: 1
               value: 8.
               norm_class_idx: 8
               splits:
                  - { var:641, quality:3.9282890319824219e+001,
                      le:1.0279907286167145e-001 }
            -
               depth: 2
               value: 5.
               norm_class_idx: 5
               splits:
                  - { var:51, quality:2.3704082489013672e+001,
                      le:5.8380540460348129e-002 }
            -
               depth: 3
               value: 5.
               norm_class_idx: 5
               splits:
                  - { var:517, quality:2.2684209823608398e+001,
                      le:1.5919819474220276e-001 }
            -
               depth: 4
               value: 6.
               norm_class_idx: 6
               splits:
                  - { var:1142, quality:2.0705883026123047e+001,
                      le:2.9143154621124268e-002 }
            -
               depth: 5
               value: 6.
               norm_class_idx: 6
            -
               depth: 5
               value: 3.
               norm_class_idx: 3
            -
               depth: 4
               value: 5.
               norm_class_idx: 5
               splits:
                  - { var:1231, quality:19., le:4.0169517160393298e-004 }
            -
               depth: 5
               value: 5.
               norm_class_idx: 5
            -
               depth: 5
               value: 8.
               norm_class_idx: 8
            -
               depth: 3
               value: 12.
               norm_class_idx: 12
               splits:
                  - { var:682, quality:16., le:5.0852405838668346e-003 }
            -
               depth: 4
               value: 5.
               norm_class_idx: 5
            -
               depth: 4
               value: 12.
               norm_class_idx: 12
            -
               depth: 2
               value: 8.
               norm_class_idx: 8
               splits:
                  - { var:1501, quality:3.2688888549804688e+001,
                      le:3.3562636375427246e-001 }
            -
               depth: 3
               value: 8.
               norm_class_idx: 8
               splits:
                  - { var:513, quality:3.7227272033691406e+001,
                      le:1.2870061211287975e-002 }
            -
               depth: 4
               value: 6.
               norm_class_idx: 6
               splits:
                  - { var:358, quality:1.0500000000000000e+001,
                      le:1.3240823149681091e-001 }
            -
               depth: 5
               value: 6.
               norm_class_idx: 6
            -
               depth: 5
               value: 8.
               norm_class_idx: 8
            -
               depth: 4
               value: 8.
               norm_class_idx: 8
               splits:
                  - { var:1350, quality:33., le:3.5661387443542480e-001 }
            -
               depth: 5
               value: 8.
               norm_class_idx: 8
            -
               depth: 5
               value: 3.
               norm_class_idx: 3
            -
               depth: 3
               value: 12.
               norm_class_idx: 12
      -
         nodes:
            -
               depth: 0
               value: 7.
               norm_class_idx: 7
               splits:
                  - { var:594, quality:4.5851558685302734e+001,
                      le:3.3052241802215576e-001 }
            -
               depth: 1
               value: 7.
               norm_class_idx: 7
               splits:
                  - { var:1608, quality:5.0665771484375000e+001,
                      le:1.0210959613323212e-001 }
            -
               depth: 2
               value: 7.
               norm_class_idx: 7
               splits:
                  - { var:1419, quality:4.4244968414306641e+001,
                      le:1.9202021881937981e-002 }
            -
               depth: 3
               value: 7.
               norm_class_idx: 7
               splits:
                  - { var:1651, quality:4.0615249633789063e+001,
                      le:3.5907727479934692e-001 }
            -
               depth: 4
               value: 7.
               norm_class_idx: 7
               splits:
                  - { var:580, quality:3.3977165222167969e+001,
                      le:2.5918833911418915e-002 }
            -
               depth: 5
               value: 7.
               norm_class_idx: 7
            -
               depth: 5
               value: 9.
               norm_class_idx: 9
            -
               depth: 4
               value: 11.
               norm_class_idx: 11
               splits:
                  - { var:1043, quality:3.1647058486938477e+001,
                      le:2.2507106885313988e-002 }
            -
               depth: 5
               value: 11.
               norm_class_idx: 11
            -
               depth: 5
               value: 4.
               norm_class_idx: 4
            -
               depth: 3
               value: 8.
               norm_class_idx: 8
               splits:
                  - { var:618, quality:3.4920608520507812e+001,
                      le:1.7347353696823120e-001 }
            -
               depth: 4
               value: 6.
               norm_class_idx: 6
               splits:
                  - { var:574, quality:2.6644960403442383e+001,
                      le:3.5292690154165030e-003 }
            -
               depth: 5
               value: 6.
               norm_class_idx: 6
            -
               depth: 5
               value: 8.
               norm_class_idx: 8
            -
               depth: 4
               value: 12.
               norm_class_idx: 12
               splits:
                  - { var:1252, quality:3.3199073791503906e+001,
                      le:3.0805692076683044e-002 }
            -
               depth: 5
               value: 12.
               norm_class_idx: 12
            -
               depth: 5
               value: 5.
               norm_class_idx: 5
            -
               depth: 2
               value: 0.
               norm_class_idx: 0
               splits:
                  - { var:1385, quality:26., le:2.2654075175523758e-002 }
            -
               depth: 3
               value: 0.
               norm_class_idx: 0
            -
               depth: 3
               value: 3.
               norm_class_idx: 3
            -
               depth: 1
               value: 1.
               norm_class_idx: 1
               splits:
                  - { var:873, quality:2.5616666793823242e+001,
                      le:3.5233521461486816e-001 }
            -
               depth: 2
               value: 4.
               norm_class_idx: 4
               splits:
                  - { var:924, quality:7.8000001907348633e+000,
                      le:7.7284812927246094e-002 }
            -
               depth: 3
               value: 1.
               norm_class_idx: 1
            -
               depth: 3
               value: 4.
               norm_class_idx: 4
            -
               depth: 2
               value: 1.
               norm_class_idx: 1
               splits:
                  - { var:364, quality:24., le:3.5230779647827148e-001 }
            -
               depth: 3
               value: 1.
               norm_class_idx: 1
            -
               depth: 3
               value: 10.
               norm_class_idx: 10
      -
         nodes:
            -
               depth: 0
               value: 1.
               norm_class_idx: 1
               splits:
                  - { var:702, quality:4.9689033508300781e+001,
                      le:4.0564429759979248e-001 }
            -
               depth: 1
               value: 11.
               norm_class_idx: 11
               splits:
                  - { var:1608, quality:4.5320556640625000e+001,
                      le:1.5240889787673950e-001 }
            -
               depth: 2
               value: 11.
               norm_class_idx: 11
               splits:
                  - { var:337, quality:4.3795516967773438e+001,
                      le:4.0069168806076050e-001 }
            -
               depth: 3
               value: 5.
               norm_class_idx: 5
               splits:
                  - { var:1158, quality:3.7977619171142578e+001,
                      le:1.3019012287259102e-002 }
            -
               depth: 4
               value: 7.
               norm_class_idx: 7
               splits:
                  - { var:315, quality:2.9839662551879883e+001,
                      le:6.8128265440464020e-002 }
            -
               depth: 5
               value: 7.
               norm_class_idx: 7
            -
               depth: 5
               value: 9.
               norm_class_idx: 9
            -
               depth: 4
               value: 12.
               norm_class_idx: 12
               splits:
                  - { var:649, quality:3.5075233459472656e+001,
                      le:8.9562236098572612e-004 }
            -
               depth: 5
               value: 5.
               norm_class_idx: 5
            -
               depth: 5
               value: 8.
               norm_class_idx: 8
            -
               depth: 3
               value: 11.
               norm_class_idx: 11
               splits:
                  - { var:1304, quality:3.2901588439941406e+001,
                      le:1.4640693366527557e-001 }
            -
               depth: 4
               value: 11.
               norm_class_idx: 11
               splits:
                  - { var:818, quality:3.3068965911865234e+001,
                      le:1.8111301958560944e-001 }
            -
               depth: 5
               value: 11.
               norm_class_idx: 11
            -
               depth: 5
               value: 10.
               norm_class_idx: 10
            -
               depth: 4
               value: 10.
               norm_class_idx: 10
               splits:
                  - { var:31, quality:18., le:9.2090461403131485e-003 }
            -
               depth: 5
               value: 10.
               norm_class_idx: 10
            -
               depth: 5
               value: 4.
               norm_class_idx: 4
            -
               depth: 2
               value: 0.
               norm_class_idx: 0
            -
               depth: 1
               value: 1.
               norm_class_idx: 1
               splits:
                  - { var:135, quality:3.2166667938232422e+001,
                      le:7.1436092257499695e-003 }
            -
               depth: 2
               value: 1.
               norm_class_idx: 1
               splits:
                  - { var:619, quality:3.4500000000000000e+001,
                      le:6.3582481816411018e-003 }
            -
               depth: 3
               value: 1.
               norm_class_idx: 1
            -
               depth: 3
               value: 10.
               norm_class_idx: 10
            -
               depth: 2
               value: 4.
               norm_class_idx: 4
      -
         nodes:
            -
               depth: 0
